{"learner":{"attributes":{"best_iteration":"99","best_ntree_limit":"100","scikit_learn":"{\"use_label_encoder\": true, \"n_estimators\": 100, \"objective\": \"binary:logistic\", \"max_depth\": null, \"learning_rate\": null, \"verbosity\": null, \"booster\": null, \"tree_method\": null, \"gamma\": null, \"min_child_weight\": null, \"max_delta_step\": null, \"subsample\": null, \"colsample_bytree\": null, \"colsample_bylevel\": null, \"colsample_bynode\": null, \"reg_alpha\": null, \"reg_lambda\": null, \"scale_pos_weight\": null, \"base_score\": null, \"missing\": NaN, \"num_parallel_tree\": null, \"random_state\": null, \"n_jobs\": null, \"monotone_constraints\": null, \"interaction_constraints\": null, \"importance_type\": null, \"gpu_id\": null, \"validate_parameters\": null, \"predictor\": null, \"enable_categorical\": false, \"classes_\": [0.0, 1.0], \"n_classes_\": 2, \"_le\": {\"classes_\": [0.0, 1.0]}, \"_estimator_type\": \"classifier\"}"},"feature_names":[],"feature_types":[],"gradient_booster":{"model":{"gbtree_model_param":{"num_trees":"100","size_leaf_vector":"0"},"tree_info":[0,0,0,0,0,0,0,0,0,0,0,0,0,0,0,0,0,0,0,0,0,0,0,0,0,0,0,0,0,0,0,0,0,0,0,0,0,0,0,0,0,0,0,0,0,0,0,0,0,0,0,0,0,0,0,0,0,0,0,0,0,0,0,0,0,0,0,0,0,0,0,0,0,0,0,0,0,0,0,0,0,0,0,0,0,0,0,0,0,0,0,0,0,0,0,0,0,0,0,0],"trees":[{"base_weights":[-1.5491828E0,-2.2341858E-1,-1.7301353E0,-5.435467E-1,8.418605E-1,-1.1751577E0,-1.7753811E0,-4.275062E-1,-1.1625835E0,9.9708456E-1,2.247191E-1,-2.0264317E-1,-1.2927095E0,-1.7795854E0,4.3137255E-1,-5.8259773E-1,-1.298077E-1,-1.2164009E0,8.5714287E-1,1.1351352E0,4E-1,-1.3333334E0,3.2941177E-1,1.183432E-2,-7.741935E-1,-1.3329602E0,1.0909091E-1,-1.7847979E0,-8E-1,9.714286E-1,-6E-1,-6.108898E-1,-4.761905E-2,2.2222222E-1,-5.388601E-1,-1.4581673E0,-8.75E-1,1.2E0,-0E0,8E-2,1.1760299E0,6.796116E-1,-4.4444445E-1,-4.5454547E-2,6.976744E-1,2.015504E-1,-5.4545456E-1,2.5E-1,-1.04E0,-1.3932183E0,-3.6363637E-1,3.2E-1,-1.1111112E0,-1.730362E0,-1.8579524E0,9.52381E-2,-9.268293E-1,-2.2222222E-1,1.2E0,5E-1,-1E0,-5.150812E-1,-7.345679E-1,3.0508474E-1,-7.586207E-1,5.870647E-1,-7.114624E-2,-6.709265E-1,2.5974026E-2,-1.5462185E0,1.1764706E-1,-3.75E-1,-1.0909091E0,8.5714287E-1,-6.666667E-1,1.2210953E0,5.777778E-1,9.411765E-1,1.5384616E-1,6.666667E-1,-1.04E0,3.272727E-1,-5.945946E-1,8.148148E-1,-6.666667E-1,-3.1578946E-1,5.7894737E-1,-7.878788E-1,1.3333334E-1,6.666667E-1,-5E-1,-1.2727273E0,-4.7619048E-1,-8.867314E-1,-1.5029069E0,-1.8947369E-1,-1.1578947E0,-2.6666668E-1,1E0,-1.6369153E0,-1.7652032E0,-3.529412E-1,1E0,-1.106383E0,-3.030303E-1,1.52E0,-2.2222222E-1,-1.2727273E0,-2.2222222E-1],"categories":[],"categories_nodes":[],"categories_segments":[],"categories_sizes":[],"default_left":[true,true,true,true,true,true,true,true,true,true,true,true,true,true,true,true,true,true,true,true,true,false,true,true,true,true,true,true,true,true,true,true,true,true,true,true,true,false,false,true,true,true,true,true,true,true,true,true,true,true,true,true,false,true,false,true,true,false,true,false,true,false,false,false,false,false,false,false,false,false,false,false,false,false,false,false,false,false,false,false,false,false,false,false,false,false,false,false,false,false,false,false,false,false,false,false,false,false,false,false,false,false,false,false,false,false,false,false,false],"id":0,"left_children":[1,3,5,7,9,11,13,15,17,19,21,23,25,27,29,31,33,35,37,39,41,-1,43,45,47,49,51,53,55,57,59,61,63,65,67,69,71,-1,-1,73,75,77,79,81,83,85,87,89,91,93,95,97,-1,99,-1,101,103,-1,105,-1,107,-1,-1,-1,-1,-1,-1,-1,-1,-1,-1,-1,-1,-1,-1,-1,-1,-1,-1,-1,-1,-1,-1,-1,-1,-1,-1,-1,-1,-1,-1,-1,-1,-1,-1,-1,-1,-1,-1,-1,-1,-1,-1,-1,-1,-1,-1,-1,-1],"loss_changes":[1.8525449E3,3.1718527E2,1.6856445E2,5.084584E1,2.0371918E1,5.8641846E1,5.904883E1,2.7788284E1,1.3243805E1,1.3682312E1,7.697908E0,6.965843E0,2.6072021E1,3.058789E1,7.684594E0,5.9721985E0,3.007147E1,7.782791E0,1.0285714E0,5.892914E0,8.270981E0,0E0,5.8988066E0,4.5768876E0,4.479678E0,2.558783E1,3.894141E0,2.161914E1,4.062254E0,2.6539679E0,2.7E0,4.082947E0,5.4976764E0,1.208301E1,7.2159004E0,8.888611E0,4.772728E0,0E0,0E0,4.1980953E0,2.893692E0,3.396389E0,6.6488895E0,4.697543E0,3.9793282E0,6.479396E0,1.9151514E0,1.5833334E0,1.034112E0,2.201471E1,3.584689E0,5.253333E0,0E0,8.798828E0,0E0,2.4817927E0,3.1088982E0,0E0,3.75111E0,0E0,5.6565666E-1,0E0,0E0,0E0,0E0,0E0,0E0,0E0,0E0,0E0,0E0,0E0,0E0,0E0,0E0,0E0,0E0,0E0,0E0,0E0,0E0,0E0,0E0,0E0,0E0,0E0,0E0,0E0,0E0,0E0,0E0,0E0,0E0,0E0,0E0,0E0,0E0,0E0,0E0,0E0,0E0,0E0,0E0,0E0,0E0,0E0,0E0,0E0,0E0],"parents":[2147483647,0,0,1,1,2,2,3,3,4,4,5,5,6,6,7,7,8,8,9,9,10,10,11,11,12,12,13,13,14,14,15,15,16,16,17,17,18,18,19,19,20,20,22,22,23,23,24,24,25,25,26,26,27,27,28,28,29,29,30,30,31,31,32,32,33,33,34,34,35,35,36,36,39,39,40,40,41,41,42,42,43,43,44,44,45,45,46,46,47,47,48,48,49,49,50,50,51,51,53,53,55,55,56,56,58,58,60,60],"right_children":[2,4,6,8,10,12,14,16,18,20,22,24,26,28,30,32,34,36,38,40,42,-1,44,46,48,50,52,54,56,58,60,62,64,66,68,70,72,-1,-1,74,76,78,80,82,84,86,88,90,92,94,96,98,-1,100,-1,102,104,-1,106,-1,108,-1,-1,-1,-1,-1,-1,-1,-1,-1,-1,-1,-1,-1,-1,-1,-1,-1,-1,-1,-1,-1,-1,-1,-1,-1,-1,-1,-1,-1,-1,-1,-1,-1,-1,-1,-1,-1,-1,-1,-1,-1,-1,-1,-1,-1,-1,-1,-1],"split_conditions":[-1.098757E0,5E-1,-1.3282652E0,5E-1,-1.6219357E0,-1.0653579E0,5E-1,-1.5480442E0,5E-1,5E-1,-1.6815903E0,5E-1,5E-1,5E-1,2.3758855E-1,5E-1,6.6082084E-1,9.404639E-1,7.1738327E-1,-1.5955002E0,-2.4401799E-2,-4.0000004E-1,-3.8541526E-1,5E-1,-1.0790598E0,1.6769727E0,5E-1,5E-1,-1.1795397E0,-1.1392803E0,-8.675692E-1,5E-1,6.6082084E-1,-3.8541526E-1,1.7729317E0,1.9648496E0,1.7939382E0,3.6E-1,-0E0,-3.8541526E-1,5E-1,5E-1,-4.8627198E-1,4.4963926E-1,2.1567674E0,-4.1694522E-1,5E-1,5E-1,1.03005484E-1,-9.139188E-1,5E-1,-5.0288282E-2,-3.3333337E-1,-6.8868643E-1,-5.5738574E-1,5E-1,5E-1,-6.666667E-2,5E-1,1.5E-1,5E-1,-1.5452437E-1,-2.2037037E-1,9.152542E-2,-2.2758621E-1,1.7611942E-1,-2.1343874E-2,-2.0127796E-1,7.792208E-3,-4.6386558E-1,3.529412E-2,-1.12500004E-1,-3.2727274E-1,2.5714287E-1,-2.0000002E-1,3.663286E-1,1.7333335E-1,2.8235295E-1,4.615385E-2,2.0000002E-1,-3.12E-1,9.818182E-2,-1.7837839E-1,2.4444444E-1,-2.0000002E-1,-9.4736844E-2,1.7368421E-1,-2.3636365E-1,4.0000003E-2,2.0000002E-1,-1.5E-1,-3.818182E-1,-1.4285715E-1,-2.6601943E-1,-4.508721E-1,-5.6842107E-2,-3.4736842E-1,-8.0000006E-2,3E-1,-4.9107462E-1,-5.29561E-1,-1.0588236E-1,3E-1,-3.319149E-1,-9.090909E-2,4.56E-1,-6.666667E-2,-3.818182E-1,-6.666667E-2],"split_indices":[4,18,3,15,4,2,48,1,40,20,0,20,18,18,0,42,8,3,0,6,5,0,5,21,7,0,30,15,6,7,6,56,8,5,0,0,3,0,0,5,44,39,6,6,0,6,55,31,6,0,20,0,0,1,0,54,20,0,20,0,22,0,0,0,0,0,0,0,0,0,0,0,0,0,0,0,0,0,0,0,0,0,0,0,0,0,0,0,0,0,0,0,0,0,0,0,0,0,0,0,0,0,0,0,0,0,0,0,0],"split_type":[0,0,0,0,0,0,0,0,0,0,0,0,0,0,0,0,0,0,0,0,0,0,0,0,0,0,0,0,0,0,0,0,0,0,0,0,0,0,0,0,0,0,0,0,0,0,0,0,0,0,0,0,0,0,0,0,0,0,0,0,0,0,0,0,0,0,0,0,0,0,0,0,0,0,0,0,0,0,0,0,0,0,0,0,0,0,0,0,0,0,0,0,0,0,0,0,0,0,0,0,0,0,0,0,0,0,0,0,0],"sum_hessian":[7.72275E3,9.2775E2,6.795E3,7.1375E2,2.14E2,5.1425E2,6.28075E3,6.025E2,1.1125E2,1.705E2,4.35E1,5.575E1,4.585E2,6.269E3,1.175E1,3.955E2,2.07E2,1.0875E2,2.5E0,1.3775E2,3.275E1,2E0,4.15E1,4.125E1,1.45E1,4.4575E2,1.275E1,6.235E3,3.4E1,7.75E0,4E0,3.755E2,2E1,1.115E2,9.55E1,6.175E1,4.7E1,1.5E0,1E0,5.25E0,1.325E2,2.475E1,8E0,2.1E1,2.05E1,3.125E1,1E1,3E0,1.15E1,4.1925E2,2.65E1,1.15E1,1.25E0,3.589E3,2.646E3,4.25E0,2.975E1,1.25E0,6.5E0,1E0,3E0,2.145E2,1.61E2,1.375E1,6.25E0,4.925E1,6.225E1,7.725E1,1.825E1,5.85E1,3.25E0,1.5E1,3.2E1,2.5E0,2.75E0,1.2225E2,1.025E1,1.6E1,8.75E0,2.75E0,5.25E0,1.275E1,8.25E0,1.925E1,1.25E0,1.325E1,1.8E1,7.25E0,2.75E0,2E0,1E0,7.25E0,4.25E0,7.625E1,3.43E2,2.275E1,3.75E0,6.5E0,5E0,9.8775E2,2.60125E3,3.25E0,1E0,2.25E1,7.25E0,5.25E0,1.25E0,1.75E0,1.25E0],"tree_param":{"num_deleted":"0","num_feature":"58","num_nodes":"109","size_leaf_vector":"0"}},{"base_weights":[-1.1648849E0,-1.5976094E-1,-1.3095814E0,-3.876847E-1,6.0793334E-1,-8.633626E-1,-1.3471805E0,-3.028211E-1,-8.535973E-1,7.416171E-1,1.8837199E-1,-1.5443976E-1,-9.5170933E-1,-1.350481E0,3.1471983E-1,-5.1116484E-1,-1.808727E-1,-8.9668024E-1,7.14209E-1,7.9840136E-1,-5.7604477E-2,-8.853268E-1,2.5267944E-1,-2.9055512E-1,4.1997632E-1,-1.100977E0,-5.991565E-1,-1.2215903E0,-1.3779925E0,8.5733616E-1,-3.813614E-1,1.4150406E-1,-5.362267E-1,-4.310253E-2,-4.1529614E-1,-9.2742413E-1,5.9796447E-1,1.005434E0,-0E0,8.9105546E-1,3.748612E-1,-4.180416E-1,1.1299227E0,4.3102348E-1,-2.4417675E-1,-4.2327818E-1,2.5076836E-1,6.269499E-1,-4.486402E-1,-1.2201548E0,-4.9458736E-1,-4.1793948E-1,-1.1570972E0,-1.2427491E0,-4.2154422E-1,-1.3371519E0,-1.419249E0,-1.8531317E-1,1.1037456E0,5.5479664E-1,-7.3004514E-1,9.0282845E-1,-1.3154037E-1,-4.811043E-1,-8.327873E-1,-1.9679607E-1,2.4895489E-1,-5.138689E-1,1.0833325E-1,-7.477655E-1,-1.2440822E0,9.1952586E-1,1.392781E-1,6.73852E-1,-2.0986186E-1,4.5578673E-1,-9.282504E-1,5.063889E-1,-7.061138E-1,-5.0157624E-1,1.1369573E0,-5.3507763E-1,2.879676E-1,6.1664563E-1,-3.6823758E-1,8.5303414E-1,-2.3809408E-1,-1.3241622E0,-6.228834E-1,-5.987165E-1,4.1485274E-1,-5.2302617E-1,3.7276366E-1,8.6527966E-2,-1.228193E0,-1.2167549E0,-1.41657E0,1.2791689E-1,-6.22953E-1,-1.1546983E0,-1.3431267E0,-1.2487172E0,-1.4251771E0,1.4651282E-1,1.3168228E0,-1.7580155E-1,-8.6590666E-1],"categories":[],"categories_nodes":[],"categories_segments":[],"categories_sizes":[],"default_left":[true,true,true,true,true,true,true,true,true,true,true,true,true,true,true,true,true,true,true,true,true,false,true,true,true,true,true,true,true,true,true,true,true,true,true,true,false,false,false,true,true,true,false,true,true,true,true,true,false,true,true,true,true,true,true,true,true,false,true,false,true,false,false,false,false,false,false,false,false,false,false,false,false,false,false,false,false,false,false,false,false,false,false,false,false,false,false,false,false,false,false,false,false,false,false,false,false,false,false,false,false,false,false,false,false,false,false],"id":1,"left_children":[1,3,5,7,9,11,13,15,17,19,21,23,25,27,29,31,33,35,37,39,41,-1,43,45,47,49,51,53,55,57,59,61,63,65,67,69,-1,-1,-1,71,73,75,-1,77,79,81,83,85,-1,87,89,91,93,95,97,99,101,-1,103,-1,105,-1,-1,-1,-1,-1,-1,-1,-1,-1,-1,-1,-1,-1,-1,-1,-1,-1,-1,-1,-1,-1,-1,-1,-1,-1,-1,-1,-1,-1,-1,-1,-1,-1,-1,-1,-1,-1,-1,-1,-1,-1,-1,-1,-1,-1,-1],"loss_changes":[1.056168E3,1.6037132E2,1.0536035E2,2.766742E1,1.1633308E1,3.0930725E1,3.2535156E1,1.5126762E1,7.9539185E0,7.254692E0,3.8182747E0,4.514469E0,2.2549133E1,1.9035156E1,5.0158763E0,3.684513E0,1.2235292E1,5.4172363E0,7.180902E-1,5.488449E0,5.3816767E0,0E0,4.5265994E0,3.4116247E0,2.2896056E0,2.1701874E1,1.3001999E1,1.7022705E1,6.201172E0,2.0759354E0,2.4060764E0,1.9791152E0,3.0758324E0,1.0825357E1,7.298395E0,4.990959E0,0E0,0E0,0E0,2.4620285E0,5.099152E0,4.671398E0,0E0,3.5352159E0,5.4824915E0,3.1217074E0,2.4210138E0,2.0490172E0,0E0,1.5156891E1,5.2085648E0,8.690603E0,2.947483E0,2.836792E0,3.2027216E0,1.1010742E0,6.2158203E-1,0E0,1.0380754E0,0E0,2.166233E-1,0E0,0E0,0E0,0E0,0E0,0E0,0E0,0E0,0E0,0E0,0E0,0E0,0E0,0E0,0E0,0E0,0E0,0E0,0E0,0E0,0E0,0E0,0E0,0E0,0E0,0E0,0E0,0E0,0E0,0E0,0E0,0E0,0E0,0E0,0E0,0E0,0E0,0E0,0E0,0E0,0E0,0E0,0E0,0E0,0E0,0E0],"parents":[2147483647,0,0,1,1,2,2,3,3,4,4,5,5,6,6,7,7,8,8,9,9,10,10,11,11,12,12,13,13,14,14,15,15,16,16,17,17,18,18,19,19,20,20,22,22,23,23,24,24,25,25,26,26,27,27,28,28,29,29,30,30,31,31,32,32,33,33,34,34,35,35,39,39,40,40,41,41,43,43,44,44,45,45,46,46,47,47,49,49,50,50,51,51,52,52,53,53,54,54,55,55,56,56,58,58,60,60],"right_children":[2,4,6,8,10,12,14,16,18,20,22,24,26,28,30,32,34,36,38,40,42,-1,44,46,48,50,52,54,56,58,60,62,64,66,68,70,-1,-1,-1,72,74,76,-1,78,80,82,84,86,-1,88,90,92,94,96,98,100,102,-1,104,-1,106,-1,-1,-1,-1,-1,-1,-1,-1,-1,-1,-1,-1,-1,-1,-1,-1,-1,-1,-1,-1,-1,-1,-1,-1,-1,-1,-1,-1,-1,-1,-1,-1,-1,-1,-1,-1,-1,-1,-1,-1,-1,-1,-1,-1,-1,-1],"split_conditions":[-1.098757E0,5E-1,-1.3282652E0,5E-1,-2.0281606E0,-1.0653579E0,5E-1,-1.7564036E0,5E-1,3.3661166E-1,-1.6815903E0,1.0389168E0,5E-1,-1.4760934E-1,4.5670662E-2,-1.5856314E0,6.6082084E-1,3.74009E0,7.1738327E-1,5E-1,9.002632E-1,-2.6559806E-1,7.616097E-1,5E-1,5E-1,5E-1,5E-1,5E-1,5E-1,-1.1392803E0,-8.675692E-1,-1.0755495E0,5E-1,4.0916055E-1,5E-1,8.039203E-1,1.7938934E-1,3.0163023E-1,-0E0,1.9147761E0,1.2537646E0,-8.3290577E-1,3.3897683E-1,5E-1,5E-1,5E-1,1.6332205E-2,1.4548774E0,-1.3459207E-1,5E-1,5E-1,5E-1,-1.5955002E0,6.976251E-1,-6.249255E-1,-1.8259397E0,1.819793E-1,-5.5593953E-2,-9.022325E-1,1.66439E-1,2.763224E-1,2.7084854E-1,-3.9462112E-2,-1.443313E-1,-2.4983619E-1,-5.9038825E-2,7.468647E-2,-1.5416068E-1,3.2499976E-2,-2.2432965E-1,-3.7322468E-1,2.7585778E-1,4.178343E-2,2.0215562E-1,-6.295856E-2,1.3673602E-1,-2.7847514E-1,1.5191668E-1,-2.1183415E-1,-1.5047288E-1,3.410872E-1,-1.605233E-1,8.639028E-2,1.849937E-1,-1.1047128E-1,2.5591025E-1,-7.1428224E-2,-3.972487E-1,-1.8686502E-1,-1.7961496E-1,1.24455824E-1,-1.5690786E-1,1.118291E-1,2.595839E-2,-3.684579E-1,-3.6502647E-1,-4.24971E-1,3.837507E-2,-1.8688591E-1,-3.464095E-1,-4.02938E-1,-3.7461516E-1,-4.2755315E-1,4.3953847E-2,3.9504686E-1,-5.2740466E-2,-2.59772E-1],"split_indices":[4,18,3,15,4,2,48,2,40,5,0,6,21,1,0,0,8,0,0,20,6,0,6,54,21,23,17,18,15,7,6,6,20,2,27,2,0,0,0,2,3,6,0,25,12,36,7,6,0,22,30,55,6,5,6,7,2,0,6,0,6,0,0,0,0,0,0,0,0,0,0,0,0,0,0,0,0,0,0,0,0,0,0,0,0,0,0,0,0,0,0,0,0,0,0,0,0,0,0,0,0,0,0,0,0,0,0],"split_type":[0,0,0,0,0,0,0,0,0,0,0,0,0,0,0,0,0,0,0,0,0,0,0,0,0,0,0,0,0,0,0,0,0,0,0,0,0,0,0,0,0,0,0,0,0,0,0,0,0,0,0,0,0,0,0,0,0,0,0,0,0,0,0,0,0,0,0,0,0,0,0,0,0,0,0,0,0,0,0,0,0,0,0,0,0,0,0,0,0,0,0,0,0,0,0,0,0,0,0,0,0,0,0,0,0,0,0],"sum_hessian":[7.2624185E3,9.1418756E2,6.348231E3,7.052871E2,2.0890044E2,4.9520328E2,5.853028E3,5.980122E2,1.07274895E2,1.5784053E2,5.1059906E1,5.5178795E1,4.4002448E2,5.8416133E3,1.1414241E1,2.1961595E2,3.7839627E2,1.04822464E2,2.4524307E0,1.4737093E2,1.04696045E1,2.1638827E0,4.8896023E1,4.5007786E1,1.0171007E1,3.076468E2,1.3237767E2,1.0355371E3,4.806076E3,6.2840066E0,5.130234E0,7.9493847E0,2.1166656E2,2.390758E2,1.3932047E2,1.0308164E2,1.7408218E0,1.4524307E0,1E0,1.2001294E2,2.735798E1,8.528895E0,1.9407092E0,3.607837E1,1.2817653E1,3.6320663E1,8.687123E0,8.438504E0,1.7325027E0,2.5626846E2,5.1378338E1,1.0124331E2,3.1134365E1,1.00831683E3,2.7220299E1,2.4320056E3,2.3740708E3,1.2486122E0,5.0353947E0,1.2318375E0,3.8983963E0,1.489557E0,6.459828E0,1.8070146E2,3.0965113E1,1.5685692E2,8.221888E1,1.1726422E2,2.205625E1,6.79124E1,3.5169247E1,1.154188E2,4.594139E0,1.8000977E1,9.357004E0,3.1833968E0,5.3454986E0,3.4356052E1,1.722317E0,1.1340906E1,1.4767473E0,3.1601042E1,4.719621E0,5.462314E0,3.2248096E0,6.7010336E0,1.7374704E0,2.1722447E2,3.9043995E1,4.6406544E1,4.971793E0,8.966509E1,1.1578213E1,1.671907E0,2.9462458E1,8.8410315E2,1.2421368E2,7.399282E0,1.9821016E1,8.327405E1,2.3487317E3,8.686463E1,2.287206E3,1.2240502E0,3.8113444E0,1.219097E0,2.6792994E0],"tree_param":{"num_deleted":"0","num_feature":"58","num_nodes":"107","size_leaf_vector":"0"}},{"base_weights":[-9.456453E-1,-1.1508416E-1,-1.0792329E0,-2.797586E-1,4.51486E-1,-6.625222E-1,-1.1169606E0,-2.1598354E-1,-6.4948934E-1,2.3054834E-1,6.1953056E-1,-1.234116E0,-5.8357215E-1,-1.1199577E0,2.5629646E-1,-1.4907295E-1,-4.528395E-1,-8.722299E-1,-3.8055444E-1,2.6225695E-1,-9.9914E-1,6.4409304E-1,-7.709409E-1,-1.2656015E0,1.7459983E-1,-4.6927267E-1,-1.0140313E0,-1.0389029E0,-1.1698431E0,5.612562E-1,-6.7888093E-1,-2.3859495E-2,-3.3478174E-1,-6.018225E-2,-6.121939E-1,-9.385364E-1,3.8062057E-1,4.1618977E-2,-6.14987E-1,1.8384461E-1,7.298862E-1,7.022317E-1,1.366017E-1,-1.2920148E0,-1.6395415E-1,-3.6986542E-1,-8.5363305E-1,-1.093687E0,-2.1015713E-1,-1.0488783E0,-3.0940825E-1,-1.2187084E0,-1.1407591E0,7.806905E-1,-2.3160872E-1,-2.2042002E-1,-8.376687E-1,9.378156E-2,-2.1896924E-1,-4.8174176E-1,-7.635504E-2,-5.0126916E-1,8.031911E-1,-6.647975E-1,6.0071E-2,-1.0785329E0,-2.9331124E-1,7.2150934E-1,-1.3095243E-1,6.5525395E-1,-3.6515215E-1,-7.7926916E-1,4.5687404E-1,1.3058304E-2,5.359287E-1,1.1235205E0,4.2786498E-2,7.5685924E-1,-1.3708036E-1,-1.9360639E-1,9.1625917E-1,-1.3163878E0,-1.4783101E-1,-1.8983562E-1,-8.0505973E-1,-4.809833E-2,-9.9395335E-1,-1.1448351E0,-4.067187E-1,6.4327145E-1,-6.10859E-1,-1.0262274E0,-1.2208203E0,-1.2664571E-1,-7.8717893E-1,-9.2704624E-1,-1.1485604E0,9.476247E-1,1.08541615E-1],"categories":[],"categories_nodes":[],"categories_segments":[],"categories_sizes":[],"default_left":[true,true,true,true,true,true,true,true,true,true,true,true,true,true,true,true,true,true,true,true,false,true,false,true,false,true,true,true,true,true,true,true,true,true,true,true,true,true,true,true,true,true,true,true,false,true,true,true,true,true,true,false,true,true,false,false,false,false,false,false,false,false,false,false,false,false,false,false,false,false,false,false,false,false,false,false,false,false,false,false,false,false,false,false,false,false,false,false,false,false,false,false,false,false,false,false,false,false,false],"id":2,"left_children":[1,3,5,7,9,11,13,15,17,19,21,23,25,27,29,31,33,35,37,39,-1,41,-1,43,-1,45,47,49,51,53,55,57,59,61,63,65,67,69,71,73,75,77,79,81,-1,83,85,87,89,91,93,-1,95,97,-1,-1,-1,-1,-1,-1,-1,-1,-1,-1,-1,-1,-1,-1,-1,-1,-1,-1,-1,-1,-1,-1,-1,-1,-1,-1,-1,-1,-1,-1,-1,-1,-1,-1,-1,-1,-1,-1,-1,-1,-1,-1,-1,-1,-1],"loss_changes":[7.132822E2,8.33499E1,8.633838E1,1.6170773E1,7.3294067E0,2.0141891E1,2.1184082E1,9.306316E0,5.7342644E0,3.7143164E0,4.3805046E0,2.669632E0,1.9602524E1,1.9271973E1,3.7664595E0,1.0750886E1,8.0845585E0,4.894371E0,4.741627E0,3.0597873E0,0E0,3.2172165E0,0E0,1.362999E0,0E0,1.2076141E1,5.1977386E0,1.3787109E1,3.055664E0,1.8334773E0,6.081307E-2,6.3883557E0,7.0368156E0,1.5093906E1,3.3010178E0,4.3952446E0,6.973042E-1,4.7196536E0,5.762081E0,4.558979E0,3.2439804E0,4.7119904E0,3.4684823E0,1.2752838E0,0E0,2.017418E1,7.398739E0,2.2358017E0,3.429536E0,6.196289E0,2.3084226E0,0E0,2.230957E0,7.5761366E-1,0E0,0E0,0E0,0E0,0E0,0E0,0E0,0E0,0E0,0E0,0E0,0E0,0E0,0E0,0E0,0E0,0E0,0E0,0E0,0E0,0E0,0E0,0E0,0E0,0E0,0E0,0E0,0E0,0E0,0E0,0E0,0E0,0E0,0E0,0E0,0E0,0E0,0E0,0E0,0E0,0E0,0E0,0E0,0E0,0E0],"parents":[2147483647,0,0,1,1,2,2,3,3,4,4,5,5,6,6,7,7,8,8,9,9,10,10,11,11,12,12,13,13,14,14,15,15,16,16,17,17,18,18,19,19,21,21,23,23,25,25,26,26,27,27,28,28,29,29,30,30,31,31,32,32,33,33,34,34,35,35,36,36,37,37,38,38,39,39,40,40,41,41,42,42,43,43,45,45,46,46,47,47,48,48,49,49,50,50,52,52,53,53],"right_children":[2,4,6,8,10,12,14,16,18,20,22,24,26,28,30,32,34,36,38,40,-1,42,-1,44,-1,46,48,50,52,54,56,58,60,62,64,66,68,70,72,74,76,78,80,82,-1,84,86,88,90,92,94,-1,96,98,-1,-1,-1,-1,-1,-1,-1,-1,-1,-1,-1,-1,-1,-1,-1,-1,-1,-1,-1,-1,-1,-1,-1,-1,-1,-1,-1,-1,-1,-1,-1,-1,-1,-1,-1,-1,-1,-1,-1,-1,-1,-1,-1,-1,-1],"split_conditions":[-1.098757E0,5E-1,-1.3282652E0,5E-1,-1.5480442E0,5E-1,5E-1,5E-1,9.404639E-1,5E-1,1.419652E0,5E-1,5E-1,-3.9916664E-1,8.133422E-1,-1.6219357E0,-5.353588E-1,2.1567674E0,1.7939382E0,5E-1,-2.99742E-1,5E-1,-2.3128228E-1,1.8688906E0,5.237995E-2,5E-1,5E-1,5E-1,3.648976E-1,5E-1,-3.5648033E-2,8.133422E-1,2.6282144E-1,-8.593799E-1,5E-1,6.6082084E-1,3.1386253E-1,-3.8541526E-1,5E-1,1.101219E0,2.8556803E-1,1.9147761E0,7.1738327E-1,5E-1,-4.918625E-2,5E-1,-1.0653579E0,1.2878702E0,-6.7736036E-1,5E-1,8.618696E-1,-3.6561254E-1,-1.8062361E0,8.601674E-1,-6.948262E-2,-6.612601E-2,-2.5130063E-1,2.8134469E-2,-6.569078E-2,-1.4452253E-1,-2.2906512E-2,-1.5038076E-1,2.4095735E-1,-1.9943926E-1,1.80213E-2,-3.2355988E-1,-8.7993376E-2,2.164528E-1,-3.928573E-2,1.965762E-1,-1.0954565E-1,-2.3378076E-1,1.3706222E-1,3.9174915E-3,1.6077863E-1,3.3705616E-1,1.283595E-2,2.2705778E-1,-4.112411E-2,-5.808192E-2,2.7487776E-1,-3.9491636E-1,-4.4349305E-2,-5.695069E-2,-2.4151793E-1,-1.4429499E-2,-2.98186E-1,-3.4345055E-1,-1.2201562E-1,1.9298144E-1,-1.832577E-1,-3.078682E-1,-3.662461E-1,-3.7993714E-2,-2.3615369E-1,-2.7811387E-1,-3.4456813E-1,2.8428742E-1,3.2562487E-2],"split_indices":[4,18,3,15,1,13,48,20,3,35,5,10,17,3,0,4,7,0,3,55,0,15,0,0,0,19,23,18,4,29,6,0,7,7,43,8,3,5,12,0,0,2,0,18,0,20,2,7,7,15,7,0,7,7,0,0,0,0,0,0,0,0,0,0,0,0,0,0,0,0,0,0,0,0,0,0,0,0,0,0,0,0,0,0,0,0,0,0,0,0,0,0,0,0,0,0,0,0,0],"split_type":[0,0,0,0,0,0,0,0,0,0,0,0,0,0,0,0,0,0,0,0,0,0,0,0,0,0,0,0,0,0,0,0,0,0,0,0,0,0,0,0,0,0,0,0,0,0,0,0,0,0,0,0,0,0,0,0,0,0,0,0,0,0,0,0,0,0,0,0,0,0,0,0,0,0,0,0,0,0,0,0,0,0,0,0,0,0,0,0,0,0,0,0,0,0,0,0,0,0,0],"sum_hessian":[6.4288213E3,8.910035E2,5.537818E3,6.9074396E2,2.0025952E2,4.6129373E2,5.0765244E3,5.904765E2,1.0026747E2,8.7539E1,1.1272052E2,5.420693E1,4.0708682E2,5.0656533E3,1.0870742E1,4.6168286E2,1.2879364E2,5.361693E1,4.6650547E1,8.610542E1,1.433575E0,1.1129135E2,1.4291648E0,5.312123E1,1.0856948E0,3.233248E2,8.376202E1,1.9382213E3,3.1274321E3,8.499055E0,2.3716867E0,2.7642966E2,1.8525319E2,3.7577774E1,9.1215866E1,5.116018E1,2.4567492E0,1.694962E1,2.970093E1,7.493365E1,1.1171775E1,9.9507904E1,1.1783449E1,5.170865E1,1.4125823E0,2.5844528E2,6.48795E1,7.588233E1,7.8796816E0,1.9116428E3,2.6578497E1,1.1516279E3,1.9758043E3,6.6687555E0,1.8302991E0,1.2244704E0,1.1472164E0,1.7277478E2,1.0365489E2,1.17544685E2,6.770851E1,2.5148909E1,1.2428864E1,8.460664E1,6.6092224E0,4.1487045E1,9.673133E0,1.2280554E0,1.2286938E0,6.513223E0,1.0436396E1,2.5990404E1,3.7105248E0,5.1156254E1,2.3777397E1,6.698875E0,4.4728994E0,9.351933E1,5.9885693E0,8.805666E0,2.9777832E0,5.0482788E1,1.2258632E0,1.8383374E2,7.461155E1,9.824263E0,5.505524E1,7.0003716E1,5.878622E0,2.3241868E0,5.555495E0,1.6952821E3,2.1636072E2,2.0139553E1,6.4389443E0,7.380398E1,1.9020004E3,5.013712E0,1.6550436E0],"tree_param":{"num_deleted":"0","num_feature":"58","num_nodes":"99","size_leaf_vector":"0"}},{"base_weights":[-7.8709084E-1,-8.367694E-2,-9.166392E-1,-2.0318252E-1,3.3521748E-1,-5.156537E-1,-9.5646864E-1,-1.5435909E-1,-5.057525E-1,4.218414E-1,2.0397797E-2,-6.764448E-3,-5.88307E-1,-8.0945224E-1,-9.8974705E-1,-2.9883328E-1,-7.1540706E-2,-3.500597E-1,-8.298084E-1,5.94803E-1,2.2667842E-1,-9.738107E-1,8.7694004E-2,5.882329E-2,-1.0068477E0,-7.116956E-1,-3.053341E-1,-8.2866E-1,-2.3233765E-1,-9.933154E-1,1.8312529E-1,-2.6820457E-1,-6.5488803E-1,-1.1789207E-1,4.2885303E-1,-3.964847E-1,6.321678E-1,-1.7598684E-1,-9.873022E-1,6.145951E-1,-3.9380604E-1,3.500923E-1,-3.41871E-1,3.236226E-1,-2.3532307E-1,1.246475E-1,-9.371446E-1,-7.696809E-1,1.4773732E-1,1.3650551E-1,-4.9512926E-1,-7.989631E-1,-1.0372647E0,4.4013774E-1,-3.2529017E-1,-9.433376E-1,-1.0459826E0,3.885536E-1,-8.9031625E-1,-2.488379E-1,-1.0682414E0,-8.388401E-1,8.911946E-1,-5.8433153E-3,-3.205485E-1,2.9014054E-1,1.0150348E0,1.2451248E-1,-4.8146284E-1,8.195406E-2,8.919439E-1,-4.7109628E-1,7.8370523E-1,-1.0572634E0,-1.8955453E-1,4.5950696E-1,8.090386E-1,7.604874E-1,1.3302687E-1,-6.314413E-1,5.6344783E-1,5.8498394E-1,-4.326248E-1,-1.0652282E0,2.8434828E-1,7.843071E-3,1.2088301E0,-8.1315655E-1,8.5816585E-2,-3.8387468E-1,4.8487365E-1,4.2062917E-1,-9.403957E-1,-5.305149E-1,1.074727E0,-6.680831E-1,-8.488156E-1,8.490322E-2,-1.0552993E0,7.869043E-1,-1.4468493E-1,-5.1280584E-2,-6.374704E-1,-9.076803E-1,-9.865796E-1,-8.457387E-1,-1.0533696E0,6.8017113E-1,-2.284325E-1],"categories":[],"categories_nodes":[],"categories_segments":[],"categories_sizes":[],"default_left":[true,true,true,true,true,true,true,true,true,true,true,true,true,true,true,true,true,true,true,true,true,false,true,true,false,true,true,true,true,true,true,true,true,true,true,true,true,true,true,true,false,true,true,true,true,true,false,true,true,true,true,true,true,true,true,true,true,true,false,false,false,false,false,false,false,false,false,false,false,false,false,false,false,false,false,false,false,false,false,false,false,false,false,false,false,false,false,false,false,false,false,false,false,false,false,false,false,false,false,false,false,false,false,false,false,false,false,false,false],"id":3,"left_children":[1,3,5,7,9,11,13,15,17,19,21,23,25,27,29,31,33,35,37,39,41,-1,43,45,-1,47,49,51,53,55,57,59,61,63,65,67,69,71,73,75,-1,77,79,81,83,85,-1,87,89,91,93,95,97,99,101,103,105,107,-1,-1,-1,-1,-1,-1,-1,-1,-1,-1,-1,-1,-1,-1,-1,-1,-1,-1,-1,-1,-1,-1,-1,-1,-1,-1,-1,-1,-1,-1,-1,-1,-1,-1,-1,-1,-1,-1,-1,-1,-1,-1,-1,-1,-1,-1,-1,-1,-1,-1,-1],"loss_changes":[5.090315E2,4.362094E1,7.485571E1,9.930605E0,5.2679996E0,1.5836777E1,2.0189697E1,6.9761066E0,4.4368305E0,4.9854507E0,2.9491224E0,3.636572E0,1.2872864E1,8.6467285E0,1.4805176E1,2.1447926E0,8.702979E0,3.2155166E0,2.8822536E0,1.8034801E0,5.2337914E0,0E0,3.2011652E0,3.534166E0,0E0,1.3086563E1,9.760811E0,3.949585E0,1.8355353E0,8.182617E0,2.8691413E0,2.7960625E0,5.34361E0,7.76872E0,2.2945428E0,2.8358583E0,4.0142E-1,2.3454742E0,1.1223106E0,1.9992695E0,0E0,5.277612E0,3.8962169E0,5.0201797E0,8.01732E0,6.294227E0,0E0,9.145935E0,3.2853734E0,1.1262652E1,5.0737896E0,3.8668518E0,1.967041E0,8.6680466E-1,2.0511925E0,1.8762207E0,1.6044922E0,2.0086768E0,0E0,0E0,0E0,0E0,0E0,0E0,0E0,0E0,0E0,0E0,0E0,0E0,0E0,0E0,0E0,0E0,0E0,0E0,0E0,0E0,0E0,0E0,0E0,0E0,0E0,0E0,0E0,0E0,0E0,0E0,0E0,0E0,0E0,0E0,0E0,0E0,0E0,0E0,0E0,0E0,0E0,0E0,0E0,0E0,0E0,0E0,0E0,0E0,0E0,0E0,0E0],"parents":[2147483647,0,0,1,1,2,2,3,3,4,4,5,5,6,6,7,7,8,8,9,9,10,10,11,11,12,12,13,13,14,14,15,15,16,16,17,17,18,18,19,19,20,20,22,22,23,23,25,25,26,26,27,27,28,28,29,29,30,30,31,31,32,32,33,33,34,34,35,35,36,36,37,37,38,38,39,39,41,41,42,42,43,43,44,44,45,45,47,47,48,48,49,49,50,50,51,51,52,52,53,53,54,54,55,55,56,56,57,57],"right_children":[2,4,6,8,10,12,14,16,18,20,22,24,26,28,30,32,34,36,38,40,42,-1,44,46,-1,48,50,52,54,56,58,60,62,64,66,68,70,72,74,76,-1,78,80,82,84,86,-1,88,90,92,94,96,98,100,102,104,106,108,-1,-1,-1,-1,-1,-1,-1,-1,-1,-1,-1,-1,-1,-1,-1,-1,-1,-1,-1,-1,-1,-1,-1,-1,-1,-1,-1,-1,-1,-1,-1,-1,-1,-1,-1,-1,-1,-1,-1,-1,-1,-1,-1,-1,-1,-1,-1,-1,-1,-1,-1],"split_conditions":[-1.098757E0,5E-1,-1.3282652E0,5E-1,-1.6219357E0,-1.0653579E0,-1.4760934E-1,-1.7564036E0,8.039203E-1,-3.8541526E-1,-1.6815903E0,2.1416788E0,5E-1,5E-1,5E-1,5E-1,5E-1,5E-1,-9.022325E-1,5E-1,5E-1,-2.9214323E-1,2.3758855E-1,1.7435195E0,-3.0205435E-1,1.8688906E0,-4.709748E-1,6.976251E-1,-1.1795397E0,5E-1,5E-1,2.1153476E0,3.3661166E-1,6.6082084E-1,1.1540523E0,-1.107497E0,5E-1,6.6082084E-1,5E-1,1.3766886E-1,-1.18141815E-1,-5.19783E-1,5E-1,8.359194E-1,1.0052601E0,1.1398542E0,-2.811434E-1,5E-1,-2.4286345E-1,5E-1,5E-1,-8.1795985E-1,-1.6815903E0,-3.8541526E-1,2.5572234E-1,4.5670662E-2,1.819793E-1,2.3758855E-1,-2.6709488E-1,-7.4651375E-2,-3.2047242E-1,-2.5165206E-1,2.673584E-1,-1.7529946E-3,-9.6164554E-2,8.704217E-2,3.0451044E-1,3.7353747E-2,-1.4443886E-1,2.458622E-2,2.6758316E-1,-1.4132889E-1,2.3511158E-1,-3.1717902E-1,-5.686636E-2,1.3785209E-1,2.4271159E-1,2.2814623E-1,3.9908063E-2,-1.894324E-1,1.6903436E-1,1.7549519E-1,-1.2978745E-1,-3.1956849E-1,8.5304484E-2,2.3529213E-3,3.6264905E-1,-2.4394697E-1,2.5744976E-2,-1.1516241E-1,1.454621E-1,1.2618876E-1,-2.8211874E-1,-1.5915447E-1,3.2241812E-1,-2.0042492E-1,-2.546447E-1,2.5470966E-2,-3.165898E-1,2.3607129E-1,-4.340548E-2,-1.5384176E-2,-1.9124113E-1,-2.723041E-1,-2.959739E-1,-2.5372162E-1,-3.160109E-1,2.0405135E-1,-6.8529755E-2],"split_indices":[4,18,3,15,4,2,1,2,2,5,0,5,56,18,48,57,43,40,6,35,12,0,0,7,0,0,7,5,6,15,55,7,5,8,7,7,24,8,51,6,0,7,21,7,0,7,0,34,7,17,29,0,0,5,7,0,2,0,0,0,0,0,0,0,0,0,0,0,0,0,0,0,0,0,0,0,0,0,0,0,0,0,0,0,0,0,0,0,0,0,0,0,0,0,0,0,0,0,0,0,0,0,0,0,0,0,0,0,0],"split_type":[0,0,0,0,0,0,0,0,0,0,0,0,0,0,0,0,0,0,0,0,0,0,0,0,0,0,0,0,0,0,0,0,0,0,0,0,0,0,0,0,0,0,0,0,0,0,0,0,0,0,0,0,0,0,0,0,0,0,0,0,0,0,0,0,0,0,0,0,0,0,0,0,0,0,0,0,0,0,0,0,0,0,0,0,0,0,0,0,0,0,0,0,0,0,0,0,0,0,0,0,0,0,0,0,0,0,0,0,0],"sum_hessian":[5.5858564E3,8.690088E2,4.7168477E3,6.7652057E2,1.9248827E2,4.2744687E2,4.289401E3,5.8382355E2,9.2697014E1,1.5068636E2,4.180192E1,5.3538357E1,3.739085E2,7.96402E2,3.4929988E3,2.1177686E2,3.720467E2,6.40192E1,2.867781E1,7.880148E1,7.1884865E1,1.7961261E0,4.0005795E1,5.1126545E1,2.4118133E0,2.59319E2,1.1458951E2,7.7032776E2,2.6074217E1,3.4825564E3,1.0442317E1,1.9661667E2,1.5160188E1,3.412053E2,3.0841375E1,6.169932E1,2.3198805E0,5.9780173E0,2.2699793E1,7.7625725E1,1.1757574E0,5.9379677E1,1.2505192E1,2.3118435E1,1.688736E1,4.8777645E1,2.3489006E0,2.430266E2,1.6292397E1,3.4516502E1,8.0073006E1,6.785584E2,9.176933E1,2.7128344E0,2.3361383E1,1.7966047E3,1.6859517E3,9.300482E0,1.1418359E0,1.9324966E2,3.3670032E0,1.3957029E1,1.2031585E0,2.2038387E2,1.20821434E2,2.6148605E1,4.69277E0,8.587079E0,5.3112244E1,1.1659154E0,1.153965E0,4.961463E0,1.0165541E0,2.0570484E1,2.1293104E0,4.5053905E1,3.2571823E1,1.9675903E1,3.9703773E1,9.703882E0,2.8013096E0,1.7349026E1,5.7694097E0,6.0984464E0,1.0788914E1,4.4942947E1,3.834695E0,2.3132057E2,1.1706019E1,6.2688127E0,1.0023584E1,2.7793125E1,6.7233763E0,7.895536E1,1.1176453E0,1.91143E2,4.8741544E2,1.392868E0,9.0376465E1,1.4861114E0,1.226723E0,1.3061337E1,1.0300046E1,9.9670886E2,7.998958E2,6.4091255E1,1.6218604E3,6.245939E0,3.054543E0],"tree_param":{"num_deleted":"0","num_feature":"58","num_nodes":"109","size_leaf_vector":"0"}},{"base_weights":[-6.571168E-1,-6.053169E-2,-7.8375596E-1,-1.4684445E-1,2.4802358E-1,-5.715015E-1,-8.6322314E-1,-9.175497E-2,-3.414763E-1,3.2401237E-1,-4.439025E-2,-4.922058E-1,-7.947659E-1,-8.6665225E-1,1.2485519E-1,-2.9423442E-1,-4.8754927E-2,-1.953938E-1,-5.2262044E-1,-8.869481E-2,4.1655204E-1,2.4574237E-1,-5.1416487E-1,-3.0916563E-1,-6.1145496E-1,-8.0854523E-1,-1.6438563E-1,-8.099208E-1,-9.281961E-1,3.0159712E-1,-7.827249E-1,-6.9286984E-1,-7.684281E-2,-1.2434012E-2,-2.7372488E-1,-4.5205885E-1,1.3022423E-1,6.8023175E-1,-5.6892955E-1,-5.421936E-1,4.4297767E-1,9.343099E-1,3.2981938E-1,6.947659E-1,-1.0190977E-1,-8.840286E-1,4.1495138E-1,-9.7451884E-1,-2.4030516E-1,-5.698297E-1,-8.962712E-1,-8.201442E-1,-1.9142114E-1,6.0850844E-2,-7.3516136E-1,-6.378026E-1,-8.213673E-1,-7.4143577E-1,-9.390026E-1,-5.068872E-1,5.224657E-1,-8.8837963E-1,3.6471304E-2,2.733252E-1,-5.1280284E-1,5.9700925E-2,-1.4665276E-1,-4.865089E-1,7.84771E-2,-5.103211E-1,9.690164E-1,1.1648415E0,2.6552375E-2,-4.7166947E-1,-1.1754601E0,5.937337E-1,-7.154959E-1,5.820322E-1,-5.961898E-1,-2.088749E-1,1.0314834E0,3.8196555E-1,-2.643357E-1,-1.2780018E-1,8.8175994E-1,-3.597417E-1,7.0099944E-1,4.004609E-1,-1.2133303E0,-2.2431305E-1,1.0692136E0,-1.0451403E0,-2.787696E-1,-1.5913886E-1,-5.902872E-1,-5.984172E-1,-6.320038E-2,-9.5609933E-1,-2.032566E-1,-8.326946E-1,-2.3947637E-1,4.6794882E-1,-6.512148E-1,4.601488E-1,-5.175765E-1,-6.785761E-1,1.0196766E0,-7.7337354E-1,-8.8052565E-1,-5.481947E-1,-9.641137E-1,-7.395335E-1,-9.466593E-1,8.839672E-1,2.2918686E-2],"categories":[],"categories_nodes":[],"categories_segments":[],"categories_sizes":[],"default_left":[true,true,true,true,true,true,true,true,true,true,true,true,true,true,true,true,true,true,true,true,true,true,true,true,true,true,true,true,true,true,false,true,true,true,true,true,true,false,true,true,true,true,true,true,true,true,true,true,true,true,true,true,true,true,false,true,true,true,true,false,true,false,false,false,false,false,false,false,false,false,false,false,false,false,false,false,false,false,false,false,false,false,false,false,false,false,false,false,false,false,false,false,false,false,false,false,false,false,false,false,false,false,false,false,false,false,false,false,false,false,false,false,false,false,false],"id":4,"left_children":[1,3,5,7,9,11,13,15,17,19,21,23,25,27,29,31,33,35,37,39,41,43,45,47,49,51,53,55,57,59,-1,61,63,65,67,69,71,-1,73,75,77,79,81,83,85,87,89,91,93,95,97,99,101,103,-1,105,107,109,111,-1,113,-1,-1,-1,-1,-1,-1,-1,-1,-1,-1,-1,-1,-1,-1,-1,-1,-1,-1,-1,-1,-1,-1,-1,-1,-1,-1,-1,-1,-1,-1,-1,-1,-1,-1,-1,-1,-1,-1,-1,-1,-1,-1,-1,-1,-1,-1,-1,-1,-1,-1,-1,-1,-1,-1],"loss_changes":[3.6624805E2,2.2674948E1,6.696362E1,7.097432E0,4.1513214E0,1.8948425E1,9.960693E0,4.509257E0,3.7693691E0,5.6854153E0,5.4803553E0,1.7463242E1,2.339798E0,9.366455E0,1.9894506E0,7.816457E0,3.5081117E0,6.9610615E0,3.9919167E0,6.9703517E0,5.12484E0,3.9672668E0,5.6319103E0,1.4475353E1,5.282715E0,1.8352661E0,9.889577E-1,2.4624634E0,2.095337E0,2.027478E0,0E0,4.5842505E0,9.282819E0,3.6012838E0,4.5115056E0,4.3367853E0,3.9570198E0,0E0,3.1538792E0,3.4787984E0,2.2832248E0,2.0831966E0,3.359478E0,1.8077645E0,3.3450875E0,5.2563925E0,2.3490674E0,1.17206E0,8.208483E0,6.177002E0,2.3168259E0,1.7892761E0,2.256913E0,1.6678302E0,0E0,7.3820534E0,3.3444214E0,2.931549E0,1.2911377E0,0E0,1.4687498E0,0E0,0E0,0E0,0E0,0E0,0E0,0E0,0E0,0E0,0E0,0E0,0E0,0E0,0E0,0E0,0E0,0E0,0E0,0E0,0E0,0E0,0E0,0E0,0E0,0E0,0E0,0E0,0E0,0E0,0E0,0E0,0E0,0E0,0E0,0E0,0E0,0E0,0E0,0E0,0E0,0E0,0E0,0E0,0E0,0E0,0E0,0E0,0E0,0E0,0E0,0E0,0E0,0E0,0E0],"parents":[2147483647,0,0,1,1,2,2,3,3,4,4,5,5,6,6,7,7,8,8,9,9,10,10,11,11,12,12,13,13,14,14,15,15,16,16,17,17,18,18,19,19,20,20,21,21,22,22,23,23,24,24,25,25,26,26,27,27,28,28,29,29,31,31,32,32,33,33,34,34,35,35,36,36,38,38,39,39,40,40,41,41,42,42,43,43,44,44,45,45,46,46,47,47,48,48,49,49,50,50,51,51,52,52,53,53,55,55,56,56,57,57,58,58,60,60],"right_children":[2,4,6,8,10,12,14,16,18,20,22,24,26,28,30,32,34,36,38,40,42,44,46,48,50,52,54,56,58,60,-1,62,64,66,68,70,72,-1,74,76,78,80,82,84,86,88,90,92,94,96,98,100,102,104,-1,106,108,110,112,-1,114,-1,-1,-1,-1,-1,-1,-1,-1,-1,-1,-1,-1,-1,-1,-1,-1,-1,-1,-1,-1,-1,-1,-1,-1,-1,-1,-1,-1,-1,-1,-1,-1,-1,-1,-1,-1,-1,-1,-1,-1,-1,-1,-1,-1,-1,-1,-1,-1,-1,-1,-1,-1,-1,-1],"split_conditions":[-1.098757E0,5E-1,-1.4760934E-1,5E-1,5E-1,5E-1,5E-1,-2.2211318E0,5E-1,-2.0224562E0,5E-1,5E-1,5E-1,5E-1,5E-1,-4.1694522E-1,5E-1,3.335475E-1,-1.6648269E0,6.8342105E-2,-1.0039755E0,5.2546537E-1,3.190497E-1,5E-1,6.976251E-1,1.8688906E0,3.3661166E-1,-1.5276039E0,-1.5261734E0,-1.1392803E0,-2.3481749E-1,-2.4401799E-2,5E-1,6.6082084E-1,1.2537646E0,5E-1,-1.4727527E0,2.0406954E-1,1.293137E0,-1.5608368E0,2.3486853E0,-2.4202206E0,3.3661166E-1,-2.0891213E0,9.614837E-1,-1.1102128E0,5E-1,1.4069006E0,5E-1,6.6082084E-1,1.4548774E0,2.023835E0,2.3966649E0,-1.3963819E-1,-2.2054842E-1,1.7729317E0,4.5670662E-2,4.5670662E-2,1.819793E-1,-1.5206617E-1,4.5670662E-2,-2.665139E-1,1.0941392E-2,8.1997566E-2,-1.5384085E-1,1.7910277E-2,-4.3995827E-2,-1.4595267E-1,2.354313E-2,-1.5309633E-1,2.9070494E-1,3.4945247E-1,7.965713E-3,-1.4150085E-1,-3.5263804E-1,1.7812012E-1,-2.1464877E-1,1.7460966E-1,-1.7885694E-1,-6.2662475E-2,3.0944502E-1,1.1458967E-1,-7.930071E-2,-3.8340054E-2,2.64528E-1,-1.0792251E-1,2.1029983E-1,1.2013827E-1,-3.639991E-1,-6.729392E-2,3.207641E-1,-3.135421E-1,-8.363089E-2,-4.774166E-2,-1.7708617E-1,-1.7952517E-1,-1.8960115E-2,-2.868298E-1,-6.0976986E-2,-2.4980839E-1,-7.184292E-2,1.4038466E-1,-1.9536445E-1,1.3804466E-1,-1.5527296E-1,-2.0357284E-1,3.05903E-1,-2.3201208E-1,-2.641577E-1,-1.6445842E-1,-2.8923413E-1,-2.2186005E-1,-2.839978E-1,2.6519018E-1,6.8756063E-3],"split_indices":[4,18,1,20,20,17,48,2,56,2,39,46,34,15,55,6,15,0,6,6,7,0,7,13,5,0,5,7,6,7,0,5,56,8,3,10,7,0,0,6,0,7,5,1,7,6,24,7,19,8,6,7,0,6,0,0,0,0,2,0,0,0,0,0,0,0,0,0,0,0,0,0,0,0,0,0,0,0,0,0,0,0,0,0,0,0,0,0,0,0,0,0,0,0,0,0,0,0,0,0,0,0,0,0,0,0,0,0,0,0,0,0,0,0,0],"split_type":[0,0,0,0,0,0,0,0,0,0,0,0,0,0,0,0,0,0,0,0,0,0,0,0,0,0,0,0,0,0,0,0,0,0,0,0,0,0,0,0,0,0,0,0,0,0,0,0,0,0,0,0,0,0,0,0,0,0,0,0,0,0,0,0,0,0,0,0,0,0,0,0,0,0,0,0,0,0,0,0,0,0,0,0,0,0,0,0,0,0,0,0,0,0,0,0,0,0,0,0,0,0,0,0,0,0,0,0,0,0,0,0,0,0,0],"sum_hessian":[4.847317E3,8.490417E2,3.998275E3,6.638623E2,1.8517937E2,1.091392E3,2.906883E3,5.185586E2,1.4530371E2,1.4689746E2,3.8281906E1,8.0772205E2,2.8366995E2,2.8969521E3,9.930807E0,8.98112E1,4.287474E2,8.158704E1,6.3716675E1,2.6912956E1,1.19984505E2,2.3960688E1,1.43212185E1,3.2005295E2,4.876691E2,2.7732532E2,6.344634E0,1.5147802E3,1.3821721E3,8.870968E0,1.0598391E0,3.0921896E1,5.8889305E1,3.7005765E2,5.8689747E1,4.5407078E1,3.6179966E1,1.8546361E0,6.1862038E1,1.4513575E1,1.2399382E1,1.5813316E1,1.0417119E2,1.00202265E1,1.3940462E1,1.0278192E1,4.0430274E0,2.8783632E1,2.9126932E2,4.2810345E2,5.9565655E1,2.7188617E2,5.4391313E0,5.189981E0,1.1546532E0,9.7993805E1,1.4167863E3,7.940963E1,1.3027625E3,1.6255838E0,7.245384E0,2.421317E1,6.7087274E0,3.28649E1,2.6024406E1,2.4105794E2,1.2899973E2,3.63484E1,2.2341347E1,4.4234413E1,1.172663E0,2.3629098E0,3.381706E1,5.4845028E1,7.0170093E0,1.6000283E0,1.2913547E1,1.1323986E1,1.0753956E0,1.1488082E0,1.4664509E1,9.609455E1,8.076637E0,1.9146125E0,8.105614E0,1.0969776E1,2.9706857E0,2.053219E0,8.224972E0,2.3773375E0,1.6656898E0,2.5675304E1,3.108328E0,2.3761694E2,5.365238E1,4.0506567E2,2.303778E1,5.4482544E1,5.0831127E0,2.6570917E2,6.1770043E0,2.2273085E0,3.2118225E0,3.1913927E0,1.9985882E0,9.6217476E1,1.7763242E0,7.899725E2,6.2681384E2,4.436836E1,3.504127E1,5.176607E1,1.2509963E3,3.757035E0,3.488349E0],"tree_param":{"num_deleted":"0","num_feature":"58","num_nodes":"115","size_leaf_vector":"0"}},{"base_weights":[-5.438331E-1,-4.3180373E-2,-6.6583985E-1,-1.06346965E-1,1.8789639E-1,-4.5633358E-1,-7.5071275E-1,-7.545529E-2,-3.1615034E-1,2.0299077E-1,-9.320435E-1,7.750114E-2,-4.8657998E-1,-6.939197E-1,-8.304446E-1,-1.19654655E-1,4.49672E-2,-2.4174194E-1,-7.9213166E-1,2.2173718E-1,-7.3642296E-1,-3.8724664E-1,2.0046677E-1,-5.1093155E-1,1.04981884E-1,-6.9913757E-1,8.610123E-2,-6.2329453E-1,-8.428519E-1,-9.505144E-2,-3.4669298E-1,2.2332329E-1,-1.9704582E-1,-2.754614E-1,8.4213203E-1,-9.390179E-1,2.3458524E-1,1.862283E-1,6.738018E-1,-1.2602947E0,-1.86476E-2,-6.7809474E-1,5.808076E-1,2.8270575E-1,-4.3590105E-1,-5.365517E-1,-4.0325835E-2,-1.3143817E-1,5.85704E-1,-6.8845487E-1,-9.136518E-1,3.23712E-1,-5.25521E-1,6.721205E-1,-6.6241807E-1,-8.656247E-1,-7.5972235E-1,-1.2297606E-1,2.187987E-1,-4.4223368E-1,4.9255067E-1,2.885863E-1,-3.045999E-1,-4.4201244E-2,-6.432776E-1,1.17270365E-1,-3.6438826E-1,-1.0151936E0,-1.7058949E-1,1.3790448E-1,5.6221974E-1,6.2303796E-2,1.1285305E0,-9.135885E-1,2.3669896E-1,4.1855916E-1,-2.8096187E-1,-7.4301696E-1,1.0994552E-2,-3.7864316E-1,-6.3845867E-1,9.6909887E-1,-1.2731561E-1,-2.5447452E-1,4.0171894E-1,7.600664E-1,-7.1885437E-1,-6.808263E-1,-9.768693E-1,2.8886022E-2,-9.5134133E-1,6.770005E-1,-8.25569E-2,1.3634333E-1,-9.260357E-1,-7.5034195E-1,-1.7626971E-1,-8.76969E-1,-5.6730485E-1,-7.8148896E-1,-4.431995E-1],"categories":[],"categories_nodes":[],"categories_segments":[],"categories_sizes":[],"default_left":[true,true,true,true,true,true,true,true,true,true,false,true,true,true,true,true,true,true,true,true,true,true,true,true,true,true,true,true,true,true,true,true,true,true,false,true,false,true,true,false,false,true,false,true,true,true,true,true,true,true,true,true,true,false,true,true,true,false,false,false,false,false,false,false,false,false,false,false,false,false,false,false,false,false,false,false,false,false,false,false,false,false,false,false,false,false,false,false,false,false,false,false,false,false,false,false,false,false,false,false,false],"id":5,"left_children":[1,3,5,7,9,11,13,15,17,19,-1,21,23,25,27,29,31,33,35,37,39,41,43,45,47,49,51,53,55,57,59,61,63,65,-1,67,-1,69,71,-1,-1,73,-1,75,77,79,81,83,85,87,89,91,93,-1,95,97,99,-1,-1,-1,-1,-1,-1,-1,-1,-1,-1,-1,-1,-1,-1,-1,-1,-1,-1,-1,-1,-1,-1,-1,-1,-1,-1,-1,-1,-1,-1,-1,-1,-1,-1,-1,-1,-1,-1,-1,-1,-1,-1,-1,-1],"loss_changes":[2.5930566E2,1.2178332E1,6.035669E1,4.2199764E0,3.2181926E0,1.5970184E1,1.0417725E1,3.0502698E0,2.7738E0,3.2912564E0,0E0,3.150606E0,1.3507874E1,5.855835E0,2.057434E0,2.3061118E0,6.705218E0,2.9308462E0,1.861062E0,2.682249E0,1.3702304E0,3.657567E0,2.3830519E0,1.07960205E1,4.3680563E0,2.612793E0,1.6746517E0,3.5178318E0,1.1318359E0,3.350123E0,3.4702816E0,3.1651177E0,4.473549E0,2.570239E0,0E0,3.9566517E-1,0E0,2.894154E0,3.365594E0,0E0,0E0,2.2358856E0,0E0,3.092234E0,7.4040294E-1,1.3449402E1,4.285929E0,1.8160195E0,3.4193473E0,2.3087158E0,2.302761E0,1.214879E0,9.9516034E-1,0E0,2.4047031E0,1.9893188E0,1.1103973E0,0E0,0E0,0E0,0E0,0E0,0E0,0E0,0E0,0E0,0E0,0E0,0E0,0E0,0E0,0E0,0E0,0E0,0E0,0E0,0E0,0E0,0E0,0E0,0E0,0E0,0E0,0E0,0E0,0E0,0E0,0E0,0E0,0E0,0E0,0E0,0E0,0E0,0E0,0E0,0E0,0E0,0E0,0E0,0E0],"parents":[2147483647,0,0,1,1,2,2,3,3,4,4,5,5,6,6,7,7,8,8,9,9,11,11,12,12,13,13,14,14,15,15,16,16,17,17,18,18,19,19,20,20,21,21,22,22,23,23,24,24,25,25,26,26,27,27,28,28,29,29,30,30,31,31,32,32,33,33,35,35,37,37,38,38,41,41,43,43,44,44,45,45,46,46,47,47,48,48,49,49,50,50,51,51,52,52,54,54,55,55,56,56],"right_children":[2,4,6,8,10,12,14,16,18,20,-1,22,24,26,28,30,32,34,36,38,40,42,44,46,48,50,52,54,56,58,60,62,64,66,-1,68,-1,70,72,-1,-1,74,-1,76,78,80,82,84,86,88,90,92,94,-1,96,98,100,-1,-1,-1,-1,-1,-1,-1,-1,-1,-1,-1,-1,-1,-1,-1,-1,-1,-1,-1,-1,-1,-1,-1,-1,-1,-1,-1,-1,-1,-1,-1,-1,-1,-1,-1,-1,-1,-1,-1,-1,-1,-1,-1,-1],"split_conditions":[-1.098757E0,5E-1,-1.4760934E-1,5E-1,2.473722E0,-1.7387972E0,6.5707314E-1,4.0916055E-1,-9.43311E-1,5E-1,-2.7961305E-1,5E-1,5E-1,5E-1,-1.5261734E0,5E-1,-9.43311E-1,3.74009E0,1.9147761E0,5E-1,1.3020352E-1,5E-1,6.976251E-1,1.5810138E0,-1.0221677E0,5E-1,5E-1,-1.8814042E0,5E-1,5E-1,5E-1,3.0203981E0,2.6814513E0,-9.0080357E-1,2.5263962E-1,5E-1,7.037558E-2,5E-1,1.6774978E-3,-3.780884E-1,-5.59428E-3,5E-1,1.7424229E-1,5E-1,2.0699562E-1,-6.2604195E-1,-1.5394173E0,5E-1,5E-1,3.2247193E0,-1.854379E0,-1.2457742E-1,5E-1,2.0163617E-1,5E-1,5E-1,5E-1,-3.689282E-2,6.5639615E-2,-1.326701E-1,1.477652E-1,8.657589E-2,-9.137998E-2,-1.3260374E-2,-1.9298328E-1,3.5181113E-2,-1.0931648E-1,-3.045581E-1,-5.117685E-2,4.1371346E-2,1.6866593E-1,1.869114E-2,3.3855915E-1,-2.7407658E-1,7.100969E-2,1.2556775E-1,-8.428857E-2,-2.229051E-1,3.2983657E-3,-1.1359295E-1,-1.915376E-1,2.9072967E-1,-3.8194686E-2,-7.634236E-2,1.2051569E-1,2.2801992E-1,-2.1565633E-1,-2.042479E-1,-2.930608E-1,8.665807E-3,-2.8540242E-1,2.0310016E-1,-2.4767073E-2,4.0903002E-2,-2.7781072E-1,-2.2510259E-1,-5.2880917E-2,-2.630907E-1,-1.7019147E-1,-2.3444669E-1,-1.3295986E-1],"split_indices":[4,18,1,15,7,3,2,2,1,35,0,11,18,48,6,36,1,0,2,57,3,55,5,0,2,17,29,7,19,51,45,0,8,7,0,19,0,36,7,0,0,23,0,21,6,0,7,27,30,5,7,7,22,0,53,28,52,0,0,0,0,0,0,0,0,0,0,0,0,0,0,0,0,0,0,0,0,0,0,0,0,0,0,0,0,0,0,0,0,0,0,0,0,0,0,0,0,0,0,0,0],"split_type":[0,0,0,0,0,0,0,0,0,0,0,0,0,0,0,0,0,0,0,0,0,0,0,0,0,0,0,0,0,0,0,0,0,0,0,0,0,0,0,0,0,0,0,0,0,0,0,0,0,0,0,0,0,0,0,0,0,0,0,0,0,0,0,0,0,0,0,0,0,0,0,0,0,0,0,0,0,0,0,0,0,0,0,0,0,0,0,0,0,0,0,0,0,0,0,0,0,0,0,0,0],"sum_hessian":[4.244605E3,8.3197296E2,3.412632E3,6.5379333E2,1.7817963E2,9.857394E2,2.4268926E3,5.710683E2,8.272506E1,1.7661794E2,1.5616817E0,5.277224E1,9.3296716E2,1.4229952E3,1.0038974E3,4.1774667E2,1.533216E2,7.28453E1,9.879757E0,1.7391142E2,2.706515E0,1.059171E1,4.2180527E1,8.96211E2,3.6756126E1,1.4136426E3,9.352678E0,5.962614E1,9.4427124E2,3.7818317E2,3.9563503E1,8.831408E1,6.500751E1,7.1370804E1,1.4745E0,8.717949E0,1.1618078E0,1.6255498E2,1.1356453E1,1.127656E0,1.5788591E0,8.375002E0,2.2167084E0,3.7845444E1,4.335086E0,8.4980676E2,4.6404236E1,2.5125793E1,1.1630331E1,1.3505931E3,6.304944E1,7.074874E0,2.2778049E0,1.2736902E0,5.8352448E1,7.3382965E2,2.1044159E2,3.4784232E2,3.0340878E1,3.5944576E1,3.6189244E0,7.9001144E1,9.312935E0,4.9240547E1,1.5766959E1,1.3118084E1,5.8252716E1,7.6395016E0,1.0784471E0,1.4525325E2,1.7301716E1,5.328264E0,6.0281887E0,6.6614685E0,1.713533E0,3.070295E1,7.1424923E0,2.1766372E0,2.1584487E0,3.3516782E2,5.14639E2,2.8771825E0,4.352705E1,2.08394E1,4.2863936E0,1.0627302E1,1.003029E0,1.3190643E3,3.152881E1,2.433217E0,6.0616222E1,3.4277456E0,3.6471283E0,1.107388E0,1.1704168E0,4.8955082E1,9.397367E0,7.050778E2,2.8751804E1,1.9552667E2,1.4914919E1],"tree_param":{"num_deleted":"0","num_feature":"58","num_nodes":"101","size_leaf_vector":"0"}},{"base_weights":[-4.4307148E-1,-2.0251891E-1,-6.449155E-1,-3.4951958E-1,-1.9306798E-2,-7.7252537E-1,-6.0055065E-1,-2.753065E-1,-5.733943E-1,-8.83729E-2,1.0236097E-1,-8.0463886E-1,-6.544579E-1,-5.902027E-1,-9.6853197E-1,-1.8569344E-1,-5.4420954E-1,-5.951754E-1,2.8601788E-2,-1.2232678E-1,6.1136197E-2,1.9929074E-2,3.0776495E-1,-6.987469E-1,-8.394013E-1,-6.904259E-1,-1.8151195E-1,-5.942187E-1,5.7162307E-2,-1.0131391E0,-5.3481724E-2,-1.373199E-1,-6.6440225E-1,-5.729804E-1,9.2970765E-1,-6.519941E-2,-6.0967445E-1,6.4258575E-1,-4.9159703E-1,-3.3659022E-2,-2.1228352E-1,-1.3358352E-1,3.9170557E-1,-4.6060596E-2,2.8836474E-1,3.3640206E-1,-8.9237547E-1,-7.3559153E-1,-1.4241744E-2,-5.862079E-1,-8.5313046E-1,-7.1091497E-1,3.0145577E-1,-6.154563E-1,1.2537307E0,-5.515614E-1,-6.420205E-1,3.759489E-1,-2.75393E-1,-1.0366467E0,-1.0545803E-1,-8.363946E-2,-4.9729562E-1,-7.462221E-1,1.402281E-1,-4.212472E-1,-6.676737E-1,1.9640405E0,-3.582029E-1,-4.644343E-1,8.2777846E-1,-5.679603E-1,-8.048805E-1,1.1413451E0,-3.8824844E-1,1.6503018E-1,-7.0093834E-1,-6.347419E-2,7.7724123E-1,-3.518451E-1,-1.9462496E-2,-1.9364963E-1,1.1936818E0,1.1046734E0,-8.342877E-2,1.3964379E-1,-1.7887083E-1,1.0522759E0,7.966968E-2,1.5748516E-1,5.5630165E-1,-2.1535641E-1,-7.580367E-1,-7.798794E-1,6.09404E-1,-7.0349693E-1,2.8401884E-1,-8.798728E-1,-6.957623E-1,-7.3574454E-1,1.50489565E-2,1.8661503E-1,-8.083415E-1,-4.594646E-1,-6.056766E-1,-2.6137212E-1,-6.5591735E-1,-2.7425554E-1,6.168054E-1,3.6857176E-1,-5.196515E-1,-1.0854727E0,-6.442012E-1],"categories":[],"categories_nodes":[],"categories_segments":[],"categories_sizes":[],"default_left":[true,true,true,true,true,true,true,true,true,true,true,true,true,true,true,true,true,true,true,true,true,true,true,true,true,true,true,true,true,true,false,true,true,true,true,true,true,true,true,true,true,true,true,true,true,true,false,true,true,true,true,true,false,true,false,true,true,true,true,true,false,false,false,false,false,false,false,false,false,false,false,false,false,false,false,false,false,false,false,false,false,false,false,false,false,false,false,false,false,false,false,false,false,false,false,false,false,false,false,false,false,false,false,false,false,false,false,false,false,false,false,false,false],"id":6,"left_children":[1,3,5,7,9,11,13,15,17,19,21,23,25,27,29,31,33,35,37,39,41,43,45,47,49,51,53,55,57,59,-1,61,63,65,67,69,71,73,75,77,79,81,83,85,87,89,-1,91,93,95,97,99,-1,101,-1,103,105,107,109,111,-1,-1,-1,-1,-1,-1,-1,-1,-1,-1,-1,-1,-1,-1,-1,-1,-1,-1,-1,-1,-1,-1,-1,-1,-1,-1,-1,-1,-1,-1,-1,-1,-1,-1,-1,-1,-1,-1,-1,-1,-1,-1,-1,-1,-1,-1,-1,-1,-1,-1,-1,-1,-1],"loss_changes":[1.8295471E2,4.636708E1,1.1141235E1,1.5713661E1,6.45912E0,1.4651794E0,5.237488E0,1.7233948E1,3.1233826E0,2.4957888E0,4.7078576E0,9.176636E-1,1.8766632E0,3.8982544E0,1.5853348E0,1.2438545E1,8.135841E0,1.7174759E0,3.2627814E0,3.181663E0,5.934547E0,3.5515914E0,3.038107E0,2.687107E0,5.520325E-1,2.4297829E0,6.7969775E0,2.6583252E0,1.1717708E0,7.067032E-1,0E0,9.478885E0,3.3567429E0,2.2544365E0,5.7844243E0,2.9546611E0,1.3544159E0,2.8416948E0,8.8012564E-1,4.9457974E0,5.3284826E0,4.875406E0,1.1653681E1,4.0005875E0,6.2217655E0,3.0021677E0,0E0,1.0216827E0,3.57081E0,2.1150246E0,5.868225E-1,1.9416847E0,0E0,1.4038498E0,0E0,3.6477814E0,3.4814453E0,1.0410644E0,1.0580401E0,1.2882233E-2,0E0,0E0,0E0,0E0,0E0,0E0,0E0,0E0,0E0,0E0,0E0,0E0,0E0,0E0,0E0,0E0,0E0,0E0,0E0,0E0,0E0,0E0,0E0,0E0,0E0,0E0,0E0,0E0,0E0,0E0,0E0,0E0,0E0,0E0,0E0,0E0,0E0,0E0,0E0,0E0,0E0,0E0,0E0,0E0,0E0,0E0,0E0,0E0,0E0,0E0,0E0,0E0,0E0],"parents":[2147483647,0,0,1,1,2,2,3,3,4,4,5,5,6,6,7,7,8,8,9,9,10,10,11,11,12,12,13,13,14,14,15,15,16,16,17,17,18,18,19,19,20,20,21,21,22,22,23,23,24,24,25,25,26,26,27,27,28,28,29,29,31,31,32,32,33,33,34,34,35,35,36,36,37,37,38,38,39,39,40,40,41,41,42,42,43,43,44,44,45,45,47,47,48,48,49,49,50,50,51,51,53,53,55,55,56,56,57,57,58,58,59,59],"right_children":[2,4,6,8,10,12,14,16,18,20,22,24,26,28,30,32,34,36,38,40,42,44,46,48,50,52,54,56,58,60,-1,62,64,66,68,70,72,74,76,78,80,82,84,86,88,90,-1,92,94,96,98,100,-1,102,-1,104,106,108,110,112,-1,-1,-1,-1,-1,-1,-1,-1,-1,-1,-1,-1,-1,-1,-1,-1,-1,-1,-1,-1,-1,-1,-1,-1,-1,-1,-1,-1,-1,-1,-1,-1,-1,-1,-1,-1,-1,-1,-1,-1,-1,-1,-1,-1,-1,-1,-1,-1,-1,-1,-1,-1,-1],"split_conditions":[-1.4760934E-1,-1.1986237E0,3.648976E-1,5E-1,-7.0774186E-1,5E-1,3.2247193E0,5E-1,1.8688906E0,5E-1,5E-1,-6.8490356E-1,5E-1,5E-1,5E-1,6.976251E-1,2.2636247E0,-1.6648269E0,2.3966649E0,-1.4624722E-1,2.6200873E-1,5E-1,1.419652E0,-7.274544E-1,-1.5261734E0,1.6628575E0,6.214243E-1,-5.0288282E-2,4.5670662E-2,1.7729317E0,-1.6044518E-2,5E-1,1.4548774E0,-5.30083E-1,-1.3963819E-1,-2.4401799E-2,5E-1,-3.8541526E-1,-7.9824245E-1,1.881167E0,-1.7564036E0,1.0586386E0,6.449523E-1,3.1386253E-1,-1.1102128E0,-1.4624722E-1,-2.6771265E-1,-1.5955002E0,-3.8541526E-1,1.0052601E0,1.246897E0,2.5026922E0,9.0436734E-2,5E-1,3.7611923E-1,-3.9916664E-1,-1.8249283E0,-1.1392803E0,-8.675692E-1,5E-1,-3.163741E-2,-2.5091838E-2,-1.491887E-1,-2.2386663E-1,4.206843E-2,-1.2637417E-1,-2.0030212E-1,5.892122E-1,-1.0746088E-1,-1.393303E-1,2.4833354E-1,-1.703881E-1,-2.4146415E-1,3.4240356E-1,-1.1647454E-1,4.9509056E-2,-2.102815E-1,-1.904226E-2,2.3317237E-1,-1.0555353E-1,-5.838749E-3,-5.8094893E-2,3.5810456E-1,3.3140203E-1,-2.5028633E-2,4.189314E-2,-5.366125E-2,3.1568277E-1,2.3900904E-2,4.724555E-2,1.668905E-1,-6.460693E-2,-2.2741102E-1,-2.3396383E-1,1.8282121E-1,-2.110491E-1,8.520566E-2,-2.6396185E-1,-2.0872869E-1,-2.2072338E-1,4.514687E-3,5.5984512E-2,-2.4250247E-1,-1.3783939E-1,-1.8170299E-1,-7.841164E-2,-1.9677521E-1,-8.2276665E-2,1.8504162E-1,1.1057153E-1,-1.5589544E-1,-3.256418E-1,-1.9326037E-1],"split_indices":[1,3,4,17,2,19,5,29,0,19,18,7,52,48,57,5,7,6,0,0,7,22,5,7,6,6,0,0,0,0,0,26,6,0,6,5,12,5,6,7,2,5,7,3,6,0,0,6,5,0,6,5,0,11,0,3,7,7,6,20,0,0,0,0,0,0,0,0,0,0,0,0,0,0,0,0,0,0,0,0,0,0,0,0,0,0,0,0,0,0,0,0,0,0,0,0,0,0,0,0,0,0,0,0,0,0,0,0,0,0,0,0,0],"split_type":[0,0,0,0,0,0,0,0,0,0,0,0,0,0,0,0,0,0,0,0,0,0,0,0,0,0,0,0,0,0,0,0,0,0,0,0,0,0,0,0,0,0,0,0,0,0,0,0,0,0,0,0,0,0,0,0,0,0,0,0,0,0,0,0,0,0,0,0,0,0,0,0,0,0,0,0,0,0,0,0,0,0,0,0,0,0,0,0,0,0,0,0,0,0,0,0,0,0,0,0,0,0,0,0,0,0,0,0,0,0,0,0,0],"sum_hessian":[3.7697478E3,1.7208665E3,2.0488813E3,9.542856E2,7.6658093E2,5.2432196E2,1.5245594E3,7.183776E2,2.3590794E2,4.8917102E2,2.7740988E2,4.0763348E2,1.1668845E2,1.4853927E3,3.916674E1,5.400832E2,1.7829439E2,2.2768144E2,8.226505E0,3.987873E2,9.038373E1,1.9874669E2,7.86632E1,1.059607E2,3.016728E2,1.0801406E2,8.674393E0,1.4763163E3,9.076361E0,3.724396E1,1.922777E0,4.9168524E2,4.8397964E1,1.7548027E2,2.8141217E0,6.2094126E0,2.2147203E2,3.6652217E0,4.5612836E0,2.0152457E2,1.9726274E2,5.7254337E1,3.312939E1,1.6019443E2,3.8552265E1,7.753285E1,1.1303505E0,1.004777E2,5.483004E0,1.776414E1,2.8390866E2,1.0610552E2,1.9085379E0,7.0991535E0,1.5752395E0,7.8676404E2,6.895523E2,4.5674906E0,4.5088696E0,3.6165257E1,1.078707E0,4.2895135E2,6.27339E1,4.3996696E1,4.4012694E0,6.952478E1,1.0595549E2,1.2695513E0,1.5445706E0,4.6226225E0,1.5867901E0,1.85699E2,3.577303E1,2.3978426E0,1.2673789E0,1.1538253E0,3.4074585E0,1.9526672E2,6.257841E0,1.1395717E2,8.3305565E1,5.5592564E1,1.6617726E0,1.2718917E1,2.0410477E1,6.6774414E1,9.342002E1,7.4049354E0,3.114733E1,4.3696354E1,3.3836494E1,4.59394E0,9.588376E1,2.3488503E0,3.1341538E0,1.5823098E1,1.9410403E0,2.3874617E2,4.5162483E1,1.02583466E2,3.5220551E0,1.3825648E0,5.7165885E0,2.947054E2,4.9205862E2,2.4985449E1,6.6456683E2,1.197124E0,3.3703668E0,1.0999671E0,3.4089024E0,3.0593103E1,5.5721526E0],"tree_param":{"num_deleted":"0","num_feature":"58","num_nodes":"113","size_leaf_vector":"0"}},{"base_weights":[-3.539258E-1,-1.5082462E-1,-5.445018E-1,-6.109831E-2,-3.3511767E-1,-6.8058854E-1,-4.9934322E-1,2.33085E-3,-2.854645E-1,-3.7226516E-1,2.1348408E-1,-7.155078E-1,-5.5704844E-1,-4.8890865E-1,-9.03023E-1,2.7703589E-2,-2.545549E-1,-1.6051087E-1,-5.945961E-1,-3.4380534E-1,-7.6787955E-1,-3.1101966E-1,5.16646E-1,-5.5398554E-1,-7.4277145E-1,-6.989722E-1,-4.3115053E-1,-4.7893578E-1,-7.5088346E-1,-2.9115826E-1,-1.0132201E0,-6.73755E-3,2.0339587E-1,-3.1038913E-1,1.2272393E0,5.839791E-2,-2.620744E-1,4.2520455E-1,-7.305504E-1,-3.1491834E-1,-7.691897E-1,-8.3975846E-1,3.4095332E-1,-6.6078526E-1,5.9340566E-1,6.4230967E-1,-7.027642E-1,-6.105782E-1,7.1548715E-2,-4.504083E-1,-7.6191974E-1,-3.6931548E-1,-8.376164E-1,-6.272291E-1,-5.5647235E-2,-4.3057E-1,-5.276112E-1,9.96636E-4,-7.9393536E-1,-8.416675E-1,5.9693974E-1,-1.0482354E0,-2.462652E-1,2.3008708E-2,-2.4890658E-1,5.824333E-1,8.5309505E-2,9.4314456E-2,-5.347008E-1,1.8714847E-1,-6.1057746E-1,-3.7277293E-1,-1.19652385E-2,8.960255E-1,-8.542878E-1,-5.857732E-1,-1.0212431E0,6.8762285E-1,-3.2763085E-1,3.7428302E-1,-8.515194E-1,-8.833671E-1,-1.0841857E-1,3.626222E-1,-9.9352235E-1,1.014506E0,-3.0890533E-1,9.7203815E-1,8.127257E-2,-6.4240533E-1,4.2304724E-1,-7.698268E-1,1.0547668E0,-6.11189E-1,2.3276126E-1,-7.8541416E-1,-6.219693E-1,-6.872391E-1,2.0461425E-1,-9.183784E-1,2.6513986E-2,-6.672505E-1,2.875424E-1,-2.4041942E-1,1.4451467E0,-3.3364198E-1,-5.153877E-1,-4.99518E-1,-7.0589936E-1,-7.311113E-1,8.8515E-1,-6.042037E-1,-9.944948E-1],"categories":[],"categories_nodes":[],"categories_segments":[],"categories_sizes":[],"default_left":[true,true,true,true,true,true,true,true,true,true,true,true,true,true,true,true,true,true,true,true,true,true,true,true,true,true,true,true,true,true,true,true,true,true,false,true,true,true,true,true,true,true,false,true,true,true,false,true,true,true,true,true,true,true,true,true,true,true,true,false,false,false,false,false,false,false,false,false,false,false,false,false,false,false,false,false,false,false,false,false,false,false,false,false,false,false,false,false,false,false,false,false,false,false,false,false,false,false,false,false,false,false,false,false,false,false,false,false,false,false,false,false,false],"id":7,"left_children":[1,3,5,7,9,11,13,15,17,19,21,23,25,27,29,31,33,35,37,39,41,43,45,47,49,51,53,55,57,59,61,63,65,67,-1,69,71,73,75,77,79,81,-1,83,85,87,-1,89,91,93,95,97,99,101,103,105,107,109,111,-1,-1,-1,-1,-1,-1,-1,-1,-1,-1,-1,-1,-1,-1,-1,-1,-1,-1,-1,-1,-1,-1,-1,-1,-1,-1,-1,-1,-1,-1,-1,-1,-1,-1,-1,-1,-1,-1,-1,-1,-1,-1,-1,-1,-1,-1,-1,-1,-1,-1,-1,-1,-1,-1],"loss_changes":[1.3193362E2,2.7304855E1,1.0471497E1,1.5834584E1,1.1102047E1,1.4804382E0,5.138275E0,5.6670904E0,9.376825E0,5.443657E0,5.7160215E0,1.0684509E0,1.4943733E0,3.0197144E0,1.8759136E0,4.78911E0,6.8473825E0,3.9284348E0,1.0046238E1,5.5912476E0,2.933216E0,4.6377273E0,3.9016323E0,1.9010906E0,1.2501068E0,1.7763424E0,4.0784864E0,2.7127686E0,1.4792175E0,3.5908427E0,4.6373177E-1,4.778204E0,5.756245E0,6.9604836E0,0E0,4.989001E0,3.3292284E0,6.1221886E0,2.024849E0,5.9124374E0,3.095377E0,9.081173E-1,0E0,3.8171024E0,1.9357258E0,3.7937355E0,0E0,1.858078E0,5.1535296E0,2.3324795E0,3.849945E-1,2.9321334E0,2.211172E0,1.5319796E0,5.9662795E0,5.0224075E0,2.7425842E0,2.8947458E0,1.0430107E0,0E0,0E0,0E0,0E0,0E0,0E0,0E0,0E0,0E0,0E0,0E0,0E0,0E0,0E0,0E0,0E0,0E0,0E0,0E0,0E0,0E0,0E0,0E0,0E0,0E0,0E0,0E0,0E0,0E0,0E0,0E0,0E0,0E0,0E0,0E0,0E0,0E0,0E0,0E0,0E0,0E0,0E0,0E0,0E0,0E0,0E0,0E0,0E0,0E0,0E0,0E0,0E0,0E0,0E0],"parents":[2147483647,0,0,1,1,2,2,3,3,4,4,5,5,6,6,7,7,8,8,9,9,10,10,11,11,12,12,13,13,14,14,15,15,16,16,17,17,18,18,19,19,20,20,21,21,22,22,23,23,24,24,25,25,26,26,27,27,28,28,29,29,30,30,31,31,32,32,33,33,35,35,36,36,37,37,38,38,39,39,40,40,41,41,43,43,44,44,45,45,47,47,48,48,49,49,50,50,51,51,52,52,53,53,54,54,55,55,56,56,57,57,58,58],"right_children":[2,4,6,8,10,12,14,16,18,20,22,24,26,28,30,32,34,36,38,40,42,44,46,48,50,52,54,56,58,60,62,64,66,68,-1,70,72,74,76,78,80,82,-1,84,86,88,-1,90,92,94,96,98,100,102,104,106,108,110,112,-1,-1,-1,-1,-1,-1,-1,-1,-1,-1,-1,-1,-1,-1,-1,-1,-1,-1,-1,-1,-1,-1,-1,-1,-1,-1,-1,-1,-1,-1,-1,-1,-1,-1,-1,-1,-1,-1,-1,-1,-1,-1,-1,-1,-1,-1,-1,-1,-1,-1,-1,-1,-1,-1],"split_conditions":[-1.4760934E-1,5E-1,3.648976E-1,5E-1,-3.3025825E-1,5E-1,3.2247193E0,5E-1,5E-1,1.0586386E0,-4.0947032E-1,-1.074963E0,-7.031142E-2,5E-1,-1.1102128E0,5E-1,1.9353484E0,-5.453707E-1,-1.1058366E0,5E-1,1.3890959E0,-2.4401799E-2,3.5961514E0,5E-1,-1.5261734E0,5E-1,2.3758855E-1,-1.4624722E-1,-1.854379E0,-1.3181932E0,1.6617769E0,5E-1,-6.262952E-1,5E-1,3.6817178E-1,5E-1,5E-1,8.3093643E-1,5.1128685E-1,-1.6815903E0,-1.5955002E0,1.5935309E0,1.02286E-1,-1.1058366E0,5E-1,5E-1,-2.1082927E-1,-1.0848691E0,-9.846594E-4,5E-1,1.246897E0,-2.4401799E-2,1.3890959E0,5E-1,5E-1,5E-1,1.1406977E0,1.8960908E-1,2.763224E-1,-2.5250027E-1,1.7908193E-1,-3.1447065E-1,-7.387956E-2,6.9026127E-3,-7.4671976E-2,1.7472999E-1,2.5592852E-2,2.8294338E-2,-1.6041026E-1,5.6144543E-2,-1.8317324E-1,-1.1183188E-1,-3.5895717E-3,2.6880765E-1,-2.5628635E-1,-1.7573197E-1,-3.0637294E-1,2.0628686E-1,-9.828926E-2,1.12284906E-1,-2.5545582E-1,-2.6501015E-1,-3.2525573E-2,1.08786665E-1,-2.9805672E-1,3.043518E-1,-9.26716E-2,2.9161146E-1,2.4381774E-2,-1.927216E-1,1.2691417E-1,-2.3094806E-1,3.1643003E-1,-1.833567E-1,6.982838E-2,-2.3562425E-1,-1.8659079E-1,-2.0617174E-1,6.138428E-2,-2.7551353E-1,7.954196E-3,-2.0017517E-1,8.6262725E-2,-7.212583E-2,4.33544E-1,-1.000926E-1,-1.5461633E-1,-1.498554E-1,-2.1176982E-1,-2.193334E-1,2.65545E-1,-1.8126112E-1,-2.9834846E-1],"split_indices":[1,46,4,20,2,19,5,29,40,5,7,7,6,17,6,18,7,7,0,15,0,5,0,31,6,37,0,0,7,6,7,36,7,37,0,47,24,6,7,0,6,6,0,0,30,39,0,7,6,53,6,5,0,28,52,9,7,0,6,0,0,0,0,0,0,0,0,0,0,0,0,0,0,0,0,0,0,0,0,0,0,0,0,0,0,0,0,0,0,0,0,0,0,0,0,0,0,0,0,0,0,0,0,0,0,0,0,0,0,0,0,0,0],"split_type":[0,0,0,0,0,0,0,0,0,0,0,0,0,0,0,0,0,0,0,0,0,0,0,0,0,0,0,0,0,0,0,0,0,0,0,0,0,0,0,0,0,0,0,0,0,0,0,0,0,0,0,0,0,0,0,0,0,0,0,0,0,0,0,0,0,0,0,0,0,0,0,0,0,0,0,0,0,0,0,0,0,0,0,0,0,0,0,0,0,0,0,0,0,0,0,0,0,0,0,0,0,0,0,0,0,0,0,0,0,0,0,0,0],"sum_hessian":[3.4097124E3,1.6514819E3,1.7582305E3,1.1116078E3,5.398742E2,4.3456973E2,1.3236608E3,8.6738446E2,2.4422325E2,5.059371E2,3.3937107E1,3.35069E2,9.950075E1,1.2924635E3,3.119725E1,7.9022565E2,7.7158844E1,1.7500426E2,6.921899E1,4.7372705E2,3.221004E1,1.2421177E1,2.1515928E1,5.1468086E1,2.836009E2,4.4633663E1,5.4867085E1,1.2477906E3,4.4672855E1,5.3169956E0,2.5880255E1,6.615107E2,1.2871497E2,7.511888E1,2.0399604E0,5.5596752E1,1.1940751E2,7.8921313E0,6.132685E1,4.452325E2,2.8494535E1,3.047706E1,1.7329794E0,9.151451E0,3.269726E0,1.9934849E1,1.5810795E0,4.721996E1,4.2481265E0,1.8939991E1,2.6466092E2,1.4298836E1,3.0334827E1,3.560478E1,1.9262308E1,6.3082495E2,6.169657E2,2.4722965E0,4.2200558E1,3.314625E0,2.0023704E0,2.4399542E1,1.4807129E0,5.899505E2,7.156018E1,2.9640776E1,9.907419E1,2.699464E1,4.812424E1,4.7227608E1,8.369147E0,8.243242E1,3.6975094E1,5.988293E0,1.9038384E0,4.2950695E1,1.8376156E1,4.910211E0,4.4032233E2,1.6756314E0,2.6818903E1,2.856585E1,1.9112121E0,2.2233188E0,6.928132E0,2.1445448E0,1.1251812E0,1.2094303E1,7.8405466E0,4.6176594E1,1.043366E0,2.406139E0,1.8419875E0,1.5417029E1,3.5229616E0,2.2266806E2,4.1992847E1,9.074606E0,5.22423E0,2.7684633E1,2.6501951E0,3.4371597E1,1.2331806E0,1.7898514E1,1.3637936E0,2.9669794E2,3.34127E2,5.362668E2,8.069892E1,1.4471246E0,1.025172E0,2.3747616E1,1.8452942E1],"tree_param":{"num_deleted":"0","num_feature":"58","num_nodes":"113","size_leaf_vector":"0"}},{"base_weights":[-2.781459E-1,-1.12248406E-1,-4.4979578E-1,-4.5001924E-2,-2.593195E-1,-3.8596624E-1,-5.499872E-1,1.845945E-3,-2.1610233E-1,-2.8944775E-1,1.5875418E-1,-3.9146972E-1,1.8297985E-1,-6.962309E-1,-5.1772577E-1,-1.9382505E-2,2.3685141E-1,-1.1614458E-1,-4.884182E-1,-3.0241793E-1,5.1237214E-1,2.4731386E-1,-8.527673E-1,-3.795047E-1,-6.644664E-1,3.7607196E-1,-3.6674362E-1,-6.339287E-1,-1.006803E0,-2.2140424E-1,-5.387998E-1,-6.516888E-2,8.2763694E-2,1.2187172E-1,9.426359E-1,-7.96419E-2,-7.284987E-1,2.6367885E-1,-6.106831E-1,-2.7659145E-1,-7.035479E-1,1.6529019E0,-2.8381221E-2,4.7520053E-1,-2.1017265E-1,-3.7305546E-1,-8.216474E-1,1.0100527E-1,-7.1555424E-1,6.43754E-1,4.384136E-2,-7.161635E-1,-3.4722528E-1,-3.8666028E-1,4.7238648E-1,-8.8066125E-1,-5.2125436E-1,-3.4898233E-2,-3.4666935E-1,5.2384745E-2,7.379831E-1,2.6533547E-1,-3.247076E-1,1.1841941E0,-1.486857E-1,-4.5953047E-1,-1.7808648E-2,-1.0681409E0,-1.9090839E-1,5.763255E-1,-7.6748836E-1,-6.485847E-1,3.296493E-1,-3.327539E-1,-1.008153E-1,-7.8460246E-1,2.6183873E-1,3.244451E-1,-6.8918407E-1,1.1345982E-1,1.0114608E0,-1.851679E-3,-9.899536E-1,-3.4866065E-1,-4.6679825E-1,-9.6115E-1,-2.1733068E-1,-6.205931E-1,8.1355476E-1,-8.216479E-1,-3.3308533E-1,8.969226E-1,1.4501268E-1,-4.1727933E-1,6.445234E-1,-7.3941576E-1,4.053068E-1,1.0030048E0,-5.2612406E-1,-1.2714908E-1,-6.926244E-1,-4.546845E-1,1.0068456E0,-9.6034276E-1,-2.5059885E-1,-5.3686446E-1,-1.587724E-1],"categories":[],"categories_nodes":[],"categories_segments":[],"categories_sizes":[],"default_left":[true,true,true,true,true,true,true,true,true,true,true,true,true,true,true,true,true,true,true,true,true,true,false,true,true,true,false,true,false,true,true,true,true,true,true,true,true,true,true,true,true,false,true,true,true,true,true,true,true,true,true,true,true,true,true,true,true,false,false,false,false,false,false,false,false,false,false,false,false,false,false,false,false,false,false,false,false,false,false,false,false,false,false,false,false,false,false,false,false,false,false,false,false,false,false,false,false,false,false,false,false,false,false,false,false,false,false],"id":8,"left_children":[1,3,5,7,9,11,13,15,17,19,21,23,25,27,29,31,33,35,37,39,41,43,-1,45,47,49,-1,51,-1,53,55,57,59,61,63,65,67,69,71,73,75,-1,77,79,81,83,85,87,89,91,93,95,97,99,101,103,105,-1,-1,-1,-1,-1,-1,-1,-1,-1,-1,-1,-1,-1,-1,-1,-1,-1,-1,-1,-1,-1,-1,-1,-1,-1,-1,-1,-1,-1,-1,-1,-1,-1,-1,-1,-1,-1,-1,-1,-1,-1,-1,-1,-1,-1,-1,-1,-1,-1,-1],"loss_changes":[8.92697E1,1.57766075E1,9.644409E0,8.791184E0,6.3525314E0,3.0300446E0,2.4582825E0,4.3047104E0,6.360217E0,5.015648E0,3.2836912E0,2.8054962E0,1.1710862E0,1.3948936E0,2.961609E0,3.7070115E0,5.686335E0,3.8258862E0,5.9529476E0,4.5768585E0,4.8644376E0,3.4689755E0,0E0,2.257309E0,1.5572662E0,6.562784E-1,0E0,1.878418E0,0E0,4.1330514E0,2.2995148E0,4.64952E0,4.8461256E0,4.098141E0,2.7769232E0,3.8700743E0,1.5584745E0,3.506983E0,2.1554947E0,4.25449E0,2.3347712E0,0E0,1.6882416E0,4.129203E0,1.8562748E0,1.8680191E0,8.107443E-1,2.177026E0,1.1757927E0,3.9891803E-1,1.5174499E0,2.1033669E0,5.854111E0,2.1650925E0,3.9649649E0,8.136978E-1,2.4039154E0,0E0,0E0,0E0,0E0,0E0,0E0,0E0,0E0,0E0,0E0,0E0,0E0,0E0,0E0,0E0,0E0,0E0,0E0,0E0,0E0,0E0,0E0,0E0,0E0,0E0,0E0,0E0,0E0,0E0,0E0,0E0,0E0,0E0,0E0,0E0,0E0,0E0,0E0,0E0,0E0,0E0,0E0,0E0,0E0,0E0,0E0,0E0,0E0,0E0,0E0],"parents":[2147483647,0,0,1,1,2,2,3,3,4,4,5,5,6,6,7,7,8,8,9,9,10,10,11,11,12,12,13,13,14,14,15,15,16,16,17,17,18,18,19,19,20,20,21,21,23,23,24,24,25,25,27,27,29,29,30,30,31,31,32,32,33,33,34,34,35,35,36,36,37,37,38,38,39,39,40,40,42,42,43,43,44,44,45,45,46,46,47,47,48,48,49,49,50,50,51,51,52,52,53,53,54,54,55,55,56,56],"right_children":[2,4,6,8,10,12,14,16,18,20,22,24,26,28,30,32,34,36,38,40,42,44,-1,46,48,50,-1,52,-1,54,56,58,60,62,64,66,68,70,72,74,76,-1,78,80,82,84,86,88,90,92,94,96,98,100,102,104,106,-1,-1,-1,-1,-1,-1,-1,-1,-1,-1,-1,-1,-1,-1,-1,-1,-1,-1,-1,-1,-1,-1,-1,-1,-1,-1,-1,-1,-1,-1,-1,-1,-1,-1,-1,-1,-1,-1,-1,-1,-1,-1,-1,-1,-1,-1,-1,-1,-1,-1],"split_conditions":[-1.4760934E-1,5E-1,6.5707314E-1,5E-1,-3.3025825E-1,5E-1,5E-1,5E-1,5E-1,2.2166088E0,3.5961514E0,5E-1,5E-1,1.0793669E0,-1.5261734E0,5E-1,1.1398542E0,2.6258056E0,-1.1058366E0,1.0586386E0,2.3318424E0,5E-1,-2.558302E-1,3.9467463E0,-1.854379E0,-1.2457742E-1,-1.1002309E-1,3.8556835E-1,-3.0204093E-1,5E-1,-1.3875198E0,5E-1,1.8688906E0,5E-1,5E-1,-2.6219268E0,1.416296E-1,8.3093643E-1,5E-1,-2.4401799E-2,1.3890959E0,4.958706E-1,-2.4401799E-2,1.3226344E-1,3.3661166E-1,5E-1,9.0930116E-1,3.335475E-1,5E-1,1.03005484E-1,9.759442E-1,1.6628575E0,4.2825425E-1,4.5670662E-2,-3.8541526E-1,1.197178E0,5E-1,-1.046947E-2,-1.0400081E-1,1.5715424E-2,2.2139494E-1,7.960065E-2,-9.741228E-2,3.5525823E-1,-4.460571E-2,-1.3785915E-1,-5.3425943E-3,-3.2044226E-1,-5.727252E-2,1.7289765E-1,-2.3024651E-1,-1.9457543E-1,9.88948E-2,-9.982617E-2,-3.0244593E-2,-2.3538075E-1,7.855162E-2,9.7333536E-2,-2.0675524E-1,3.4037948E-2,3.0343825E-1,-5.555037E-4,-2.9698607E-1,-1.045982E-1,-1.4003947E-1,-2.88345E-1,-6.5199204E-2,-1.8617792E-1,2.4406643E-1,-2.4649437E-1,-9.99256E-2,2.690768E-1,4.3503806E-2,-1.251838E-1,1.9335702E-1,-2.2182474E-1,1.2159204E-1,3.0090144E-1,-1.5783723E-1,-3.8144723E-2,-2.0778732E-1,-1.3640535E-1,3.020537E-1,-2.8810284E-1,-7.517966E-2,-1.6105935E-1,-4.7631722E-2],"split_indices":[1,46,2,20,2,48,11,45,40,7,0,17,29,7,6,24,7,3,0,5,7,17,0,5,7,7,0,7,0,21,6,15,0,21,27,4,0,6,10,5,0,0,5,7,5,20,0,0,39,6,7,6,7,0,5,0,28,0,0,0,0,0,0,0,0,0,0,0,0,0,0,0,0,0,0,0,0,0,0,0,0,0,0,0,0,0,0,0,0,0,0,0,0,0,0,0,0,0,0,0,0,0,0,0,0,0,0],"split_type":[0,0,0,0,0,0,0,0,0,0,0,0,0,0,0,0,0,0,0,0,0,0,0,0,0,0,0,0,0,0,0,0,0,0,0,0,0,0,0,0,0,0,0,0,0,0,0,0,0,0,0,0,0,0,0,0,0,0,0,0,0,0,0,0,0,0,0,0,0,0,0,0,0,0,0,0,0,0,0,0,0,0,0,0,0,0,0,0,0,0,0,0,0,0,0,0,0,0,0,0,0,0,0,0,0,0,0],"sum_hessian":[3.1356523E3,1.5953856E3,1.5402667E3,1.0956974E3,4.996883E2,9.438288E2,5.96438E2,8.6095435E2,2.3474301E2,4.663861E2,3.330218E1,9.3509546E2,8.73331E0,1.0407529E2,4.9236267E2,7.904676E2,7.048678E1,1.7275656E2,6.1986458E1,4.595749E2,6.8112082E0,3.1315945E1,1.9862378E0,8.981223E2,3.6973156E1,6.6968937E0,2.0364163E0,8.921877E1,1.4856513E1,3.345522E1,4.5890747E2,5.4606116E2,2.444064E2,6.162078E1,8.865996E0,1.641043E2,8.652267E0,8.506036E0,5.348042E1,4.3336264E2,2.621225E1,1.5292101E0,5.281998E0,2.0877542E1,1.0438402E1,8.870276E2,1.1094739E1,2.2520857E0,3.472107E1,3.1894474E0,3.5074463E0,6.8168236E1,2.1050535E1,2.7376917E1,6.0783033E0,2.0001335E1,4.3890613E2,4.9405756E2,5.200362E1,2.3460883E2,9.79758E0,4.6945404E1,1.4675377E1,7.189531E0,1.676465E0,2.2071367E1,1.4203293E2,4.697528E0,3.9547393E0,6.865525E0,1.6405113E0,5.1706562E1,1.7738569E0,3.2774982E2,1.0561282E2,2.435468E1,1.8575711E0,3.7752633E0,1.5067347E0,1.3190985E1,7.6865587E0,9.028724E0,1.409678E0,7.0760565E2,1.794219E2,8.534201E0,2.5605383E0,1.1830572E0,1.0690285E0,2.6282305E1,8.438765E0,1.5859984E0,1.603449E0,2.1569567E0,1.3504895E0,6.711732E1,1.0509189E0,1.9238462E0,1.912669E1,1.5578872E1,1.1798045E1,2.277325E0,3.8009784E0,1.7290474E1,2.710861E0,4.2032404E2,1.85821E1],"tree_param":{"num_deleted":"0","num_feature":"58","num_nodes":"107","size_leaf_vector":"0"}},{"base_weights":[-2.1440125E-1,-8.264168E-2,-3.6317354E-1,-3.9975286E-1,-5.7462916E-2,-5.051259E-1,-3.201224E-1,-5.0440335E-1,3.4178364E-1,-3.635951E-2,-3.8112804E-1,-4.6662647E-1,-6.7996323E-1,-3.0968535E-1,-7.906815E-1,-2.2336763E-1,-6.2387943E-1,8.0263716E-1,-5.916726E-1,-6.659559E-2,1.5241177E-1,-5.51637E-1,-1.3916738E-1,-3.038659E-1,-5.27948E-1,-7.23717E-1,4.2796645E-1,-3.0216444E-1,-7.3498756E-1,-1.3162568E-1,-9.422886E-1,-3.8163123E-1,6.1457497E-1,-6.6829E-1,9.1771804E-2,1.6814942E0,3.6438176E-1,-1.0313476E0,4.584209E-1,-4.627763E-2,-2.7225807E-1,-6.694124E-2,2.1819693E-1,-6.0575914E-1,5.0481904E-1,-3.7098432E-1,3.154673E-1,-3.7513468E-1,1.6506277E-1,-5.6447434E-1,-2.4018537E-1,1.7234887E-1,-7.519225E-1,-3.089479E-1,4.0320265E-1,-8.363601E-1,4.5984796E-1,-7.4923486E-1,6.102777E-1,-9.927731E-1,-1.2806436E-1,8.500416E-2,-7.4949294E-1,-2.6285064E-1,1.8437073E0,-8.2585937E-1,-5.189606E-1,-7.212792E-1,7.5483036E-1,-1.4952783E-1,1.7180076E0,-3.2870442E-1,-1.168608E0,-3.7233872E-4,-1.624772E-1,-4.7658193E-1,1.2288843E-1,-1.5417293E-1,4.9416775E-1,1.7163892E-1,7.3724204E-1,4.681227E-2,-7.009859E-1,-6.90307E-1,-5.986427E-2,8.491002E-1,-5.677893E-1,-4.1407797E-1,4.9815163E-1,4.0363654E-1,-4.6460593E-1,-6.5580314E-1,-4.6360567E-1,-5.975931E-1,3.9782766E-1,-8.1889826E-1,-4.3963072E-1,-2.9895082E-1,-7.21132E-1,-6.7706233E-1,6.969566E-1,-1.0038964E0,-1.4818071E-1],"categories":[],"categories_nodes":[],"categories_segments":[],"categories_sizes":[],"default_left":[true,true,true,true,true,true,true,true,true,true,true,true,true,true,true,true,true,true,true,true,true,true,true,true,true,true,false,true,true,true,true,true,true,true,true,false,true,true,false,true,true,true,true,true,false,true,true,true,true,true,true,false,true,true,true,true,false,false,false,false,false,false,false,false,false,false,false,false,false,false,false,false,false,false,false,false,false,false,false,false,false,false,false,false,false,false,false,false,false,false,false,false,false,false,false,false,false,false,false,false,false,false,false],"id":9,"left_children":[1,3,5,7,9,11,13,15,17,19,21,23,25,27,29,31,33,35,37,39,41,43,45,47,49,51,-1,53,55,57,59,61,63,65,67,-1,69,71,-1,73,75,77,79,81,-1,83,85,87,89,91,93,-1,95,97,99,101,-1,-1,-1,-1,-1,-1,-1,-1,-1,-1,-1,-1,-1,-1,-1,-1,-1,-1,-1,-1,-1,-1,-1,-1,-1,-1,-1,-1,-1,-1,-1,-1,-1,-1,-1,-1,-1,-1,-1,-1,-1,-1,-1,-1,-1,-1,-1],"loss_changes":[5.74348E1,1.2400563E1,8.250931E0,9.041426E0,9.840237E0,1.8273087E0,4.9560623E0,3.2370815E0,6.811754E0,7.7467895E0,3.5620985E0,2.4774704E0,2.9909267E0,3.0969849E0,2.107607E0,4.419229E0,2.2861958E0,3.3491073E0,2.9864872E0,4.8723702E0,2.7194004E0,3.2448826E0,4.1006913E0,2.5578308E0,1.8679657E0,1.4837761E0,0E0,5.011383E0,2.483962E0,2.9037578E0,6.125765E-1,4.725727E0,6.3041706E0,1.1251602E0,3.223527E0,0E0,5.9194956E0,1.56703E-2,0E0,5.6815276E0,8.528232E0,2.2303302E0,3.3637142E0,3.0996761E0,0E0,2.491383E0,6.7532687E0,2.4214497E0,1.7719977E0,1.2473488E0,5.530488E0,0E0,7.3036766E-1,3.955124E0,3.6966627E0,1.7342033E0,0E0,0E0,0E0,0E0,0E0,0E0,0E0,0E0,0E0,0E0,0E0,0E0,0E0,0E0,0E0,0E0,0E0,0E0,0E0,0E0,0E0,0E0,0E0,0E0,0E0,0E0,0E0,0E0,0E0,0E0,0E0,0E0,0E0,0E0,0E0,0E0,0E0,0E0,0E0,0E0,0E0,0E0,0E0,0E0,0E0,0E0,0E0],"parents":[2147483647,0,0,1,1,2,2,3,3,4,4,5,5,6,6,7,7,8,8,9,9,10,10,11,11,12,12,13,13,14,14,15,15,16,16,17,17,18,18,19,19,20,20,21,21,22,22,23,23,24,24,25,25,27,27,28,28,29,29,30,30,31,31,32,32,33,33,34,34,36,36,37,37,39,39,40,40,41,41,42,42,43,43,45,45,46,46,47,47,48,48,49,49,50,50,52,52,53,53,54,54,55,55],"right_children":[2,4,6,8,10,12,14,16,18,20,22,24,26,28,30,32,34,36,38,40,42,44,46,48,50,52,-1,54,56,58,60,62,64,66,68,-1,70,72,-1,74,76,78,80,82,-1,84,86,88,90,92,94,-1,96,98,100,102,-1,-1,-1,-1,-1,-1,-1,-1,-1,-1,-1,-1,-1,-1,-1,-1,-1,-1,-1,-1,-1,-1,-1,-1,-1,-1,-1,-1,-1,-1,-1,-1,-1,-1,-1,-1,-1,-1,-1,-1,-1,-1,-1,-1,-1,-1,-1],"split_conditions":[-1.4760934E-1,5E-1,3.648976E-1,7.618615E-2,6.976251E-1,5E-1,3.2247193E0,-5.30083E-1,5E-1,5E-1,2.0699562E-1,-6.403167E-1,1.6769727E0,2.1067033E0,-1.1102128E0,5E-1,5E-1,5.2546537E-1,5E-1,5E-1,-1.7564036E0,3.1163568E0,5E-1,-7.464336E-1,5E-1,-1.6648269E0,1.2838994E-1,1.9188569E0,5E-1,-1.3181932E0,1.6617769E0,-1.3963819E-1,5E-1,-2.79717E-2,-1.5036434E-1,5.044483E-1,5E-1,-1.1795397E0,1.3752627E-1,6.6082084E-1,9.404639E-1,5E-1,2.3486853E0,-1.5261734E0,1.5144572E-1,1.0342093E-1,3.0833542E-1,1.6769727E0,5.2546537E-1,3.5205135E-1,6.2295616E-1,5.1704664E-2,3.3661166E-1,1.670114E0,-9.022325E-1,2.7691267E0,1.379544E-1,-2.2477047E-1,1.8308333E-1,-2.9783195E-1,-3.841931E-2,2.550125E-2,-2.248479E-1,-7.8855194E-2,5.531122E-1,-2.4775782E-1,-1.5568818E-1,-2.1638377E-1,2.2644912E-1,-4.485835E-2,5.154023E-1,-9.861133E-2,-3.505824E-1,-1.1170162E-4,-4.8743162E-2,-1.4297459E-1,3.686653E-2,-4.625188E-2,1.4825033E-1,5.1491678E-2,2.2117262E-1,1.4043681E-2,-2.1029578E-1,-2.0709212E-1,-1.7959282E-2,2.5473008E-1,-1.703368E-1,-1.24223396E-1,1.4944549E-1,1.2109097E-1,-1.3938178E-1,-1.9674096E-1,-1.390817E-1,-1.7927794E-1,1.193483E-1,-2.4566948E-1,-1.3188922E-1,-8.968525E-2,-2.163396E-1,-2.0311871E-1,2.0908698E-1,-3.0116892E-1,-4.4454213E-2],"split_indices":[1,13,4,3,5,20,5,0,41,18,6,7,0,7,6,24,27,0,22,15,2,0,56,7,26,6,0,7,51,6,7,6,21,7,7,0,17,6,0,8,3,55,0,6,0,7,7,0,0,7,6,0,5,7,6,7,0,0,0,0,0,0,0,0,0,0,0,0,0,0,0,0,0,0,0,0,0,0,0,0,0,0,0,0,0,0,0,0,0,0,0,0,0,0,0,0,0,0,0,0,0,0,0],"split_type":[0,0,0,0,0,0,0,0,0,0,0,0,0,0,0,0,0,0,0,0,0,0,0,0,0,0,0,0,0,0,0,0,0,0,0,0,0,0,0,0,0,0,0,0,0,0,0,0,0,0,0,0,0,0,0,0,0,0,0,0,0,0,0,0,0,0,0,0,0,0,0,0,0,0,0,0,0,0,0,0,0,0,0,0,0,0,0,0,0,0,0,0,0,0,0,0,0,0,0,0,0,0,0],"sum_hessian":[2.9305532E3,1.5549626E3,1.3755906E3,1.13288376E2,1.4416743E3,3.1760864E2,1.0579819E3,9.955789E1,1.3730481E1,1.3544731E3,8.720116E1,2.6329886E2,5.4309788E1,1.0366471E3,2.1334787E1,3.0554974E1,6.900292E1,9.286045E0,4.4444366E0,1.168033E3,1.8644022E2,5.0402676E1,3.6798477E1,7.3683174E1,1.8961568E2,5.258011E1,1.7296791E0,1.0203147E3,1.633243E1,4.339334E0,1.6995455E1,2.6158867E1,4.3961062E0,6.503338E1,3.9695446E0,2.1459217E0,7.140123E0,3.1453345E0,1.2991023E0,1.0641296E3,1.0390326E2,4.301017E1,1.4343005E2,4.835221E1,2.050467E0,2.4493372E1,1.2305105E1,6.4135704E1,9.547465E0,1.67405E2,2.2210676E1,1.4486073E0,5.11315E1,1.0111525E3,9.16216E0,1.5331677E1,1.0007526E0,2.3626375E0,1.9766965E0,1.5796719E1,1.198735E0,1.1870267E1,1.4288601E1,3.0237374E0,1.3723689E0,2.9439241E1,3.5594135E1,1.743651E0,2.2258937E0,5.8200517E0,1.3200712E0,1.0688065E0,2.0765278E0,7.635057E2,3.0062402E2,6.835296E1,3.5550297E1,3.785098E1,5.1591916E0,1.3284465E2,1.0585395E1,6.2220535E0,4.2130157E1,1.1485883E1,1.3007489E1,7.694829E0,4.6102767E0,6.190113E1,2.2345755E0,7.1843667E0,2.3630989E0,8.496985E1,8.243516E1,1.4276496E1,7.9341803E0,4.076632E1,1.0365181E1,9.888933E2,2.2259247E1,1.6798257E0,7.4823346E0,1.1961015E1,3.3706625E0],"tree_param":{"num_deleted":"0","num_feature":"58","num_nodes":"103","size_leaf_vector":"0"}},{"base_weights":[-1.6266157E-1,-6.0347963E-2,-2.8673518E-1,4.5552876E-2,-1.1450421E-1,-2.2295599E-1,-3.6997595E-1,1.3781588E-1,-5.5530556E-2,-3.9803535E-1,-8.579563E-2,-2.8879702E-1,-1.3378252E-1,4.3714155E-2,-3.981234E-1,1.975029E-1,-1.858724E-1,2.8258878E-1,-9.6657805E-2,-4.3723047E-1,6.315009E-1,-1.2693663E-1,1.0580827E-1,4.0698773E-1,-3.2179853E-1,-1.9051315E-1,2.2644906E-1,4.0557438E-1,-4.787106E-1,-3.4263104E-1,-4.646851E-1,5.2401567E-1,1.22144684E-1,-3.0061176E-1,9.01779E-1,-1.9644554E-1,8.5445845E-1,-4.6530628E-1,-6.508781E-2,-2.1616857E-1,-5.9519124E-1,-1.7781001E-1,1.3059351E0,-2.928812E-2,-2.2727391E-1,8.890243E-1,5.356526E-2,6.863319E-2,1.3822719E0,-3.3951652E-1,1.1486952E-1,-3.5895628E-1,-1.054426E-1,1.17311664E-1,1.6081535E0,7.427837E-1,-2.9951116E-1,-6.432253E-1,7.5766176E-1,-4.221464E-1,-2.1050073E-1,-5.8460647E-1,-3.8321438E-1,1.7485124E-1,8.5450774E-1,1.8946864E-1,-2.1863502E-1,1.748441E-1,-5.5545115E-1,1.3435826E0,4.435379E-2,5.7822112E-2,-8.111514E-1,1.3248509E0,-3.4076893E-1,-8.5962266E-1,1.1498893E-1,-5.2165173E-2,-1.1614573E0,2.1299517E-1,-4.579126E-1,-6.301108E-1,1.8776466E-1,1.4061593E-2,-2.0809141E-1,-8.078231E-1,-1.8216634E-1,1.2076035E0,-8.8962066E-1,-1.0890662E-1,2.6429158E-1,-3.7143275E-1,4.8466167E-1,2.0151918E0,7.458386E-2,-3.1438366E-1,-6.761094E-1,1.1806391E0,-2.2389856E-1,-4.5029444E-1,3.7308523E-1,1.9181232E0,-1.3203806E-1,4.0288302E-1,-3.0079737E-1,1.1615541E0,-6.5736455E-1,3.2923555E-1,-5.8926624E-1,-8.806543E-1,3.21356E-2,-1.8033008E-1,-5.28117E-1,5.706112E-1,-2.7988496E-1,-3.3483842E-1,-8.187097E-1,-5.630537E-1,-1.4590754E-1],"categories":[],"categories_nodes":[],"categories_segments":[],"categories_sizes":[],"default_left":[true,true,true,true,true,true,true,true,true,true,true,true,true,true,true,true,true,true,true,true,true,true,true,true,true,true,true,true,true,true,true,true,true,true,true,true,true,true,true,true,true,false,false,true,true,true,true,true,true,true,true,true,true,true,false,true,true,true,false,true,true,true,true,false,false,false,false,false,false,false,false,false,false,false,false,false,false,false,false,false,false,false,false,false,false,false,false,false,false,false,false,false,false,false,false,false,false,false,false,false,false,false,false,false,false,false,false,false,false,false,false,false,false,false,false,false,false,false,false],"id":10,"left_children":[1,3,5,7,9,11,13,15,17,19,21,23,25,27,29,31,33,35,37,39,41,43,45,47,49,51,53,55,57,59,61,63,65,67,69,71,73,75,77,79,81,-1,-1,83,85,87,89,91,93,95,97,99,101,103,-1,105,107,109,-1,111,113,115,117,-1,-1,-1,-1,-1,-1,-1,-1,-1,-1,-1,-1,-1,-1,-1,-1,-1,-1,-1,-1,-1,-1,-1,-1,-1,-1,-1,-1,-1,-1,-1,-1,-1,-1,-1,-1,-1,-1,-1,-1,-1,-1,-1,-1,-1,-1,-1,-1,-1,-1,-1,-1,-1,-1,-1,-1],"loss_changes":[3.5283546E1,8.753214E0,6.5883026E0,4.827614E0,8.182978E0,4.153038E0,6.3468933E0,5.262452E0,3.4666972E0,4.010478E0,7.249506E0,9.541492E0,6.2781777E0,6.91079E0,1.7210007E0,5.567127E0,5.5906944E0,7.585392E0,2.5447376E0,3.0049782E0,2.3080287E0,7.4019594E0,6.6140857E0,6.1749344E0,3.0705528E0,3.7470217E0,6.139882E0,5.341871E0,3.5378995E0,2.8677368E0,2.009697E0,4.7677355E0,4.33735E0,4.8599424E0,1.5759985E0,2.4769566E0,7.495783E0,4.0552416E0,2.8433547E0,4.140602E0,1.5337219E0,0E0,0E0,2.9821162E0,9.61525E0,6.8067784E0,5.2907305E0,2.9552033E0,3.8568735E0,2.9750404E0,6.050498E0,6.0664997E0,9.774325E0,4.89409E0,0E0,9.472462E0,1.5929308E0,2.2374883E0,0E0,4.381256E0,5.9978104E0,5.0225945E0,5.851803E0,0E0,0E0,0E0,0E0,0E0,0E0,0E0,0E0,0E0,0E0,0E0,0E0,0E0,0E0,0E0,0E0,0E0,0E0,0E0,0E0,0E0,0E0,0E0,0E0,0E0,0E0,0E0,0E0,0E0,0E0,0E0,0E0,0E0,0E0,0E0,0E0,0E0,0E0,0E0,0E0,0E0,0E0,0E0,0E0,0E0,0E0,0E0,0E0,0E0,0E0,0E0,0E0,0E0,0E0,0E0,0E0],"parents":[2147483647,0,0,1,1,2,2,3,3,4,4,5,5,6,6,7,7,8,8,9,9,10,10,11,11,12,12,13,13,14,14,15,15,16,16,17,17,18,18,19,19,20,20,21,21,22,22,23,23,24,24,25,25,26,26,27,27,28,28,29,29,30,30,31,31,32,32,33,33,34,34,35,35,36,36,37,37,38,38,39,39,40,40,43,43,44,44,45,45,46,46,47,47,48,48,49,49,50,50,51,51,52,52,53,53,55,55,56,56,57,57,59,59,60,60,61,61,62,62],"right_children":[2,4,6,8,10,12,14,16,18,20,22,24,26,28,30,32,34,36,38,40,42,44,46,48,50,52,54,56,58,60,62,64,66,68,70,72,74,76,78,80,82,-1,-1,84,86,88,90,92,94,96,98,100,102,104,-1,106,108,110,-1,112,114,116,118,-1,-1,-1,-1,-1,-1,-1,-1,-1,-1,-1,-1,-1,-1,-1,-1,-1,-1,-1,-1,-1,-1,-1,-1,-1,-1,-1,-1,-1,-1,-1,-1,-1,-1,-1,-1,-1,-1,-1,-1,-1,-1,-1,-1,-1,-1,-1,-1,-1,-1,-1,-1,-1,-1,-1,-1],"split_conditions":[-1.4760934E-1,-1.6219357E0,5E-1,-3.8541526E-1,5E-1,4.8776698E-1,4.8776698E-1,5E-1,-1.2977545E0,1.9648496E0,9.0930116E-1,-1.8262691E0,5E-1,-3.8541526E-1,5E-1,-1.0408862E0,5E-1,8.039203E-1,-1.1058366E0,5E-1,5E-1,-6.2604195E-1,-1.5400152E0,1.0389168E0,5E-1,-4.4499204E-1,5E-1,2.3758855E-1,1.293137E0,1.1295756E0,-3.381651E-1,1.3080966E-1,2.6258056E0,4.0916055E-1,-4.1694522E-1,5E-1,5.897739E-1,5E-1,2.4513164E0,-3.381651E-1,5E-1,-5.3343005E-2,3.9178056E-1,5E-1,-1.39768E0,3.0203981E0,2.763224E-1,5E-1,5E-1,1.5236251E0,5E-1,5E-1,-4.2949575E-1,-5.0288282E-2,4.8244604E-1,5E-1,5E-1,3.616397E-1,2.2729854E-1,-5.30083E-1,-1.5261734E0,-9.846594E-4,2.763224E-1,5.2455373E-2,2.5635234E-1,5.6840595E-2,-6.559051E-2,5.245323E-2,-1.6663535E-1,4.030748E-1,1.3306138E-2,1.7346634E-2,-2.4334542E-1,3.974553E-1,-1.0223068E-1,-2.578868E-1,3.449668E-2,-1.5649553E-2,-3.484372E-1,6.3898556E-2,-1.3737379E-1,-1.8903325E-1,5.63294E-2,4.218478E-3,-6.2427424E-2,-2.4234694E-1,-5.4649904E-2,3.6228105E-1,-2.668862E-1,-3.2671988E-2,7.928748E-2,-1.1142983E-1,1.4539851E-1,6.045576E-1,2.2375159E-2,-9.4315104E-2,-2.0283282E-1,3.5419175E-1,-6.716957E-2,-1.3508834E-1,1.1192557E-1,5.75437E-1,-3.9611418E-2,1.2086491E-1,-9.023921E-2,3.4846625E-1,-1.9720937E-1,9.877067E-2,-1.7677988E-1,-2.641963E-1,9.64068E-3,-5.4099027E-2,-1.584351E-1,1.7118336E-1,-8.3965495E-2,-1.0045153E-1,-2.456129E-1,-1.6891612E-1,-4.377226E-2],"split_indices":[1,4,15,5,13,2,2,15,0,0,0,7,19,5,9,6,47,2,0,9,22,0,7,6,33,7,30,0,0,2,0,7,3,2,6,17,7,24,7,0,57,0,0,17,7,0,6,9,24,7,13,26,7,0,0,20,37,1,0,0,6,6,6,0,0,0,0,0,0,0,0,0,0,0,0,0,0,0,0,0,0,0,0,0,0,0,0,0,0,0,0,0,0,0,0,0,0,0,0,0,0,0,0,0,0,0,0,0,0,0,0,0,0,0,0,0,0,0,0],"split_type":[0,0,0,0,0,0,0,0,0,0,0,0,0,0,0,0,0,0,0,0,0,0,0,0,0,0,0,0,0,0,0,0,0,0,0,0,0,0,0,0,0,0,0,0,0,0,0,0,0,0,0,0,0,0,0,0,0,0,0,0,0,0,0,0,0,0,0,0,0,0,0,0,0,0,0,0,0,0,0,0,0,0,0,0,0,0,0,0,0,0,0,0,0,0,0,0,0,0,0,0,0,0,0,0,0,0,0,0,0,0,0,0,0,0,0,0,0,0,0],"sum_hessian":[2.7798171E3,1.5243191E3,1.255498E3,5.15816E2,1.00850305E3,7.129294E2,5.425687E2,2.694837E2,2.4633228E2,9.154301E1,9.169601E2,4.0883115E2,3.040982E2,3.4529354E1,5.080394E2,2.2785742E2,4.162629E1,2.6076723E1,2.2025555E2,8.873994E1,2.8030734E0,7.551521E2,1.61808E2,1.7999876E1,3.908313E2,2.6313055E2,4.0967648E1,2.053166E1,1.3997692E1,2.804098E2,2.276296E2,4.1611042E1,1.8624638E2,3.830862E1,3.3176692E0,1.454739E1,1.1529332E1,1.629043E1,2.0396512E2,3.7970177E1,5.0769756E1,1.608843E0,1.1942306E0,3.8335846E2,3.717936E2,9.1166115E0,1.5269139E2,1.4158316E1,3.8415606E0,3.7580533E2,1.5025966E1,8.7217285E1,1.7591325E2,3.8974087E1,1.9935626E0,1.3852969E1,6.6786914E0,1.2777266E1,1.2204263E0,1.7368944E2,1.0672036E2,8.958651E1,1.3804309E2,2.0977453E1,2.0633587E1,1.558925E2,3.0353884E1,1.3477482E1,2.483114E1,1.8153043E0,1.5023648E0,1.0931576E1,3.6158144E0,8.1954775E0,3.3338547E0,9.41291E0,6.87752E0,2.026244E2,1.3407041E0,1.3724408E1,2.424577E1,4.8788998E1,1.9807572E0,3.0929358E2,7.406489E1,2.5585903E1,3.462077E2,8.004035E0,1.112576E0,8.6490005E1,6.620138E1,6.932481E0,7.225835E0,2.224076E0,1.6174847E0,3.5149384E2,2.4311476E1,3.0248005E0,1.2001165E1,7.7884384E1,9.332898E0,1.359389E0,1.7455388E2,2.317905E1,1.5795034E1,1.0794768E1,3.0582008E0,2.063909E0,4.6147823E0,9.22882E0,3.5484464E0,5.3746353E1,1.19943085E2,8.117007E0,9.8603355E1,4.4518932E1,4.5067577E1,7.77493E1,6.029379E1],"tree_param":{"num_deleted":"0","num_feature":"58","num_nodes":"119","size_leaf_vector":"0"}},{"base_weights":[-1.2250128E-1,-4.4444628E-2,-2.2270536E-1,-1.7416833E-2,-2.0303918E-1,-1.6835609E-1,-2.9661974E-1,-7.0468024E-3,-3.195269E-1,-2.3264101E-1,7.6516867E-1,-2.4861912E-1,-1.1194034E-1,1.4453781E-2,-3.19614E-1,-5.040526E-1,-1.3725495E-3,-4.1898155E-1,9.161705E-1,-2.580591E-1,3.2990918E-1,1.4794966E0,-2.8311935E-1,-3.096139E-1,1.0531749E-1,-3.5774052E-1,-5.6928672E-2,2.6003927E-1,-3.9828664E-1,-3.0671737E-1,-7.000946E-1,-6.484673E-1,6.8530613E-1,1.6658747E-1,-2.148132E-2,4.1858763E-1,-4.9426717E-1,-5.9769057E-2,1.4419507E0,-4.6756622E-1,-1.8797986E-1,-4.1123826E-2,1.119081E0,-1.7114826E-2,2.063828E0,2.4492934E-1,-6.669447E-1,-2.5686887E-1,-5.863057E-1,3.4357595E-1,-3.7060353E-1,-5.260645E-1,-9.514547E-2,-2.590195E-2,-5.2448964E-1,5.302256E-1,-1.5857741E-1,-6.7334694E-1,3.6256263E-1,-2.4355309E-1,-3.8122126E-1,-8.160844E-1,2.6034313E-1,-8.95472E-1,2.136667E-1,7.251146E-2,6.928641E-1,-4.3798156E-2,1.2210855E-1,8.6513925E-1,-1.4191617E-1,-8.086824E-1,-2.9982495E-1,-5.645563E-1,1.5014872E-1,-2.8242433E-1,1.9051762E-1,-5.156281E-1,5.019692E-1,-3.0105278E-1,2.2166763E-2,-6.6023934E-1,1.7626284E-1,-3.928729E-1,5.778903E-1,4.2571202E-1,-5.1177496E-1,-5.733176E-1,3.667501E-1,9.59099E-1,-2.2180551E-1,-4.801107E-2,5.315549E-1,-7.166891E-2,-7.125086E-1,1.0065879E0,-4.438431E-2,-4.8781186E-1,1.1761508E0,-8.3797795E-1,2.526261E-1,9.4738185E-1,-5.9581834E-1,-2.1156424E-1,-6.19792E-1,-4.0095678E-1,3.5234634E-2,-9.612416E-1,2.9314816E-1],"categories":[],"categories_nodes":[],"categories_segments":[],"categories_sizes":[],"default_left":[true,true,true,true,true,true,true,true,true,true,true,true,true,true,true,true,true,true,true,true,true,true,true,true,true,true,true,true,true,true,true,true,false,true,true,true,true,false,false,true,true,true,false,false,false,false,false,true,true,true,true,true,true,true,true,true,true,true,true,true,true,true,false,false,false,false,false,false,false,false,false,false,false,false,false,false,false,false,false,false,false,false,false,false,false,false,false,false,false,false,false,false,false,false,false,false,false,false,false,false,false,false,false,false,false,false,false,false,false],"id":11,"left_children":[1,3,5,7,9,11,13,15,17,19,21,23,25,27,29,31,33,35,37,39,41,43,45,47,49,51,53,55,57,59,61,63,-1,65,67,69,71,-1,-1,73,75,77,-1,-1,-1,-1,-1,79,81,83,85,87,89,91,93,95,97,99,101,103,105,107,-1,-1,-1,-1,-1,-1,-1,-1,-1,-1,-1,-1,-1,-1,-1,-1,-1,-1,-1,-1,-1,-1,-1,-1,-1,-1,-1,-1,-1,-1,-1,-1,-1,-1,-1,-1,-1,-1,-1,-1,-1,-1,-1,-1,-1,-1,-1],"loss_changes":[2.08172E1,6.4177833E0,4.632988E0,4.01103E0,6.4269476E0,3.024479E0,3.5284157E0,3.4949415E0,5.6056423E0,3.121232E0,5.4370613E0,6.0215454E0,5.35682E0,3.6376565E0,2.0364342E0,2.8471696E0,4.1461706E0,2.7298431E0,1.8712723E0,2.9030266E0,2.8622575E0,3.6612482E0,8.8392544E-1,3.3065948E0,4.8360853E0,3.1560621E0,4.7175574E0,2.6248794E0,3.0487807E0,2.003727E0,1.8011408E0,2.9571824E0,0E0,6.448371E0,3.518342E0,1.0842164E0,2.029912E0,0E0,0E0,3.1036673E0,5.5703964E0,2.1933124E0,0E0,0E0,0E0,0E0,0E0,2.481596E0,2.2107573E0,5.0917854E0,1.829334E0,2.065731E0,4.1591077E0,3.8078775E0,1.6723952E0,3.8446856E0,4.7841997E0,1.7655597E0,2.923209E0,2.8040066E0,1.6796112E0,2.3694973E0,0E0,0E0,0E0,0E0,0E0,0E0,0E0,0E0,0E0,0E0,0E0,0E0,0E0,0E0,0E0,0E0,0E0,0E0,0E0,0E0,0E0,0E0,0E0,0E0,0E0,0E0,0E0,0E0,0E0,0E0,0E0,0E0,0E0,0E0,0E0,0E0,0E0,0E0,0E0,0E0,0E0,0E0,0E0,0E0,0E0,0E0,0E0],"parents":[2147483647,0,0,1,1,2,2,3,3,4,4,5,5,6,6,7,7,8,8,9,9,10,10,11,11,12,12,13,13,14,14,15,15,16,16,17,17,18,18,19,19,20,20,21,21,22,22,23,23,24,24,25,25,26,26,27,27,28,28,29,29,30,30,31,31,33,33,34,34,35,35,36,36,39,39,40,40,41,41,47,47,48,48,49,49,50,50,51,51,52,52,53,53,54,54,55,55,56,56,57,57,58,58,59,59,60,60,61,61],"right_children":[2,4,6,8,10,12,14,16,18,20,22,24,26,28,30,32,34,36,38,40,42,44,46,48,50,52,54,56,58,60,62,64,-1,66,68,70,72,-1,-1,74,76,78,-1,-1,-1,-1,-1,80,82,84,86,88,90,92,94,96,98,100,102,104,106,108,-1,-1,-1,-1,-1,-1,-1,-1,-1,-1,-1,-1,-1,-1,-1,-1,-1,-1,-1,-1,-1,-1,-1,-1,-1,-1,-1,-1,-1,-1,-1,-1,-1,-1,-1,-1,-1,-1,-1,-1,-1,-1,-1,-1,-1,-1,-1],"split_conditions":[-1.4760934E-1,5E-1,5E-1,1.0586386E0,2.1028738E0,-3.8541526E-1,4.8776698E-1,-2.3148766E0,5E-1,5E-1,-1.3963819E-1,5E-1,3.616397E-1,-3.8541526E-1,5E-1,4.7020817E0,-1.1981238E0,-1.6004344E0,3.3678718E-2,-9.022325E-1,5E-1,-1.0755495E0,2.3318424E0,5E-1,3.1386256E-1,5E-1,1.5357165E0,5E-1,9.0930116E-1,5E-1,5E-1,5E-1,2.0559184E-1,-1.2772007E0,5E-1,5E-1,-2.6521197E-1,-1.7930718E-2,4.325852E-1,9.0930116E-1,5E-1,5E-1,3.3572432E-1,-5.134448E-3,6.1914843E-1,7.34788E-2,-2.0008342E-1,1.0753107E0,1.3890959E0,-7.1520394E-1,-9.139188E-1,5E-1,-1.5936594E0,5E-1,-2.4401799E-2,-4.3823412E-1,5E-1,1.7806654E0,3.3661166E-1,1.4527698E0,5E-1,5E-1,7.810295E-2,-2.6864162E-1,6.410001E-2,2.1753438E-2,2.0785925E-1,-1.3139447E-2,3.6632568E-2,2.5954178E-1,-4.2574853E-2,-2.4260472E-1,-8.994749E-2,-1.693669E-1,4.5044616E-2,-8.47273E-2,5.715529E-2,-1.5468843E-1,1.5059078E-1,-9.031583E-2,6.650029E-3,-1.9807181E-1,5.2878853E-2,-1.17861874E-1,1.7336708E-1,1.277136E-1,-1.5353249E-1,-1.7199528E-1,1.1002503E-1,2.877297E-1,-6.654166E-2,-1.4403321E-2,1.5946648E-1,-2.1500673E-2,-2.137526E-1,3.0197638E-1,-1.3315293E-2,-1.4634356E-1,3.5284525E-1,-2.513934E-1,7.578783E-2,2.8421456E-1,-1.7874551E-1,-6.3469276E-2,-1.859376E-1,-1.2028704E-1,1.057039E-2,-2.883725E-1,8.794445E-2],"split_indices":[1,29,15,5,7,5,2,7,44,45,6,12,1,5,10,8,7,7,6,6,17,6,7,20,3,56,7,56,0,9,52,22,0,7,55,37,7,0,0,0,23,22,0,0,0,0,0,7,0,7,0,57,7,30,5,2,23,5,5,7,28,26,0,0,0,0,0,0,0,0,0,0,0,0,0,0,0,0,0,0,0,0,0,0,0,0,0,0,0,0,0,0,0,0,0,0,0,0,0,0,0,0,0,0,0,0,0,0,0],"split_type":[0,0,0,0,0,0,0,0,0,0,0,0,0,0,0,0,0,0,0,0,0,0,0,0,0,0,0,0,0,0,0,0,0,0,0,0,0,0,0,0,0,0,0,0,0,0,0,0,0,0,0,0,0,0,0,0,0,0,0,0,0,0,0,0,0,0,0,0,0,0,0,0,0,0,0,0,0,0,0,0,0,0,0,0,0,0,0,0,0,0,0,0,0,0,0,0,0,0,0,0,0,0,0,0,0,0,0,0,0],"sum_hessian":[2.6617683E3,1.4970471E3,1.1647212E3,1.2800157E3,2.1703136E2,6.730817E2,4.916395E2,1.2385262E3,4.1489506E1,2.1132991E2,5.7014475E0,2.7641605E2,3.9666568E2,3.3865623E1,4.5777386E2,1.2989044E1,1.2255372E3,3.901068E1,2.4788249E0,2.027119E2,8.618005E0,3.1462047E0,2.5552428E0,2.3588979E2,4.052626E1,7.153479E1,3.251309E2,2.146416E1,1.2401463E1,4.4451297E2,1.3260904E1,1.1988186E1,1.0008581E0,1.3025854E2,1.0952787E3,2.8412411E0,3.616944E1,1.1782012E0,1.3006237E0,4.938872E1,1.5332318E2,6.506726E0,2.111279E0,1.156035E0,1.9901696E0,1.2278701E0,1.3273727E0,1.9974185E2,3.614793E1,2.7191545E1,1.3334715E1,4.298072E1,2.8554071E1,3.0588797E2,1.924292E1,1.2882707E1,8.581453E0,9.193028E0,3.2084343E0,2.4287392E2,2.0163907E2,1.1966087E1,1.2948169E0,9.288364E0,2.6998212E0,1.1147017E2,1.8788374E1,9.485494E2,1.4672923E2,1.278868E0,1.562373E0,1.2613799E1,2.3555641E1,4.2760735E1,6.627989E0,1.2290834E2,3.0414837E1,3.4996386E0,3.0070875E0,1.7236916E2,2.73727E1,3.307535E1,3.072581E0,6.399924E0,2.0791622E1,1.7044926E0,1.1630222E1,4.1160137E1,1.8205845E0,2.3577018E0,2.619637E1,2.9509805E2,1.0789914E1,6.051002E0,1.3191918E1,6.6324806E0,6.250226E0,7.392488E0,1.1889652E0,7.885989E0,1.3070394E0,1.9996767E0,1.2087576E0,2.2528212E2,1.7591787E1,1.9255142E2,9.087641E0,1.0699358E1,1.2667301E0],"tree_param":{"num_deleted":"0","num_feature":"58","num_nodes":"109","size_leaf_vector":"0"}},{"base_weights":[-9.064262E-2,-5.355617E-2,-2.1768089E-1,5.190359E-2,-8.373707E-2,-2.2447513E-1,6.205117E-1,1.4458747E-1,-4.4414923E-2,-2.1915162E-1,-6.166333E-2,-2.1737172E-1,-9.912836E-1,-4.4985974E-1,1.044799E0,1.2265844E-1,7.9857975E-1,-7.930601E-3,-4.625198E-1,-6.5035075E-2,-3.347347E-1,-5.569594E-2,-6.2764055E-1,-2.3144078E-1,1.9342808E-1,2.7906013E-1,1.2616729E0,1.6099688E-1,-2.75162E-1,1.0116675E0,-1.9255176E-1,-4.65424E-2,4.2407224E-1,-6.1377746E-1,5.576231E-1,-1.1595499E-1,1.0866727E0,6.114606E-1,-3.8710454E-1,-3.3885427E-2,-1.849068E-1,-8.2074606E-1,-1.3840522E-1,-2.5433722E-1,3.931337E-2,2.5618335E-2,1.4017644E0,9.709753E-1,1.3865656E-1,-4.617279E-1,7.495293E-1,3.5929516E-1,1.1790546E0,-1.5163707E-2,-4.7684819E-1,7.5066334E-1,-1.6569582E-1,-7.490274E-1,4.7505367E-1,1.28293345E-2,-5.6879133E-1,2.2246607E-1,1.8799108E0,-6.627753E-1,1.0335748E0,-4.6273887E-1,-6.7689656E-3,9.558902E-2,-6.504445E-2,-2.3909949E-1,1.9631974E-1,-1.0947526E-1,-8.9495915E-1,-6.149383E-1,7.585254E-1,-2.5862774E-1,7.0758057E-1,6.629902E-1,-7.712477E-2,-2.1974915E-1,7.145178E-1],"categories":[],"categories_nodes":[],"categories_segments":[],"categories_sizes":[],"default_left":[true,true,true,true,true,true,true,true,true,true,true,true,false,false,true,true,true,true,true,true,true,true,true,true,true,false,false,true,true,true,false,true,true,true,false,true,true,true,true,true,true,true,true,true,true,true,false,false,false,false,false,false,false,false,false,false,false,false,false,false,false,false,false,false,false,false,false,false,false,false,false,false,false,false,false,false,false,false,false,false,false],"id":12,"left_children":[1,3,5,7,9,11,13,15,17,19,21,23,-1,-1,25,27,29,31,33,35,37,39,41,43,45,-1,-1,47,49,51,-1,53,55,57,-1,59,61,63,65,67,69,71,73,75,77,79,-1,-1,-1,-1,-1,-1,-1,-1,-1,-1,-1,-1,-1,-1,-1,-1,-1,-1,-1,-1,-1,-1,-1,-1,-1,-1,-1,-1,-1,-1,-1,-1,-1,-1,-1],"loss_changes":[1.2165613E1,6.3762236E0,3.463459E0,3.9884672E0,4.640132E0,2.9424076E0,2.7221522E0,3.1654868E0,3.3447278E0,3.8583345E0,4.4909296E0,3.372137E0,0E0,0E0,2.876687E-1,3.4203258E0,1.7156534E0,3.4042897E0,3.0579495E0,5.6732817E0,6.3925543E0,3.733889E0,1.1980844E0,3.4636555E0,3.9401808E0,0E0,0E0,3.5301194E0,4.1362705E0,2.4103642E-1,0E0,2.519877E0,3.3499568E0,2.683053E0,0E0,5.342806E0,2.3934188E0,4.397918E0,3.4007149E0,4.592081E0,4.002129E0,4.167862E-1,2.6599853E0,2.3035126E0,3.2685122E0,3.2395604E0,0E0,0E0,0E0,0E0,0E0,0E0,0E0,0E0,0E0,0E0,0E0,0E0,0E0,0E0,0E0,0E0,0E0,0E0,0E0,0E0,0E0,0E0,0E0,0E0,0E0,0E0,0E0,0E0,0E0,0E0,0E0,0E0,0E0,0E0,0E0],"parents":[2147483647,0,0,1,1,2,2,3,3,4,4,5,5,6,6,7,7,8,8,9,9,10,10,11,11,14,14,15,15,16,16,17,17,18,18,19,19,20,20,21,21,22,22,23,23,24,24,27,27,28,28,29,29,31,31,32,32,33,33,35,35,36,36,37,37,38,38,39,39,40,40,41,41,42,42,43,43,44,44,45,45],"right_children":[2,4,6,8,10,12,14,16,18,20,22,24,-1,-1,26,28,30,32,34,36,38,40,42,44,46,-1,-1,48,50,52,-1,54,56,58,-1,60,62,64,66,68,70,72,74,76,78,80,-1,-1,-1,-1,-1,-1,-1,-1,-1,-1,-1,-1,-1,-1,-1,-1,-1,-1,-1,-1,-1,-1,-1,-1,-1,-1,-1,-1,-1,-1,-1,-1,-1,-1,-1],"split_conditions":[5E-1,-1.6219357E0,3.1163568E0,-3.8541526E-1,5E-1,2.5406032E0,5E-1,5E-1,3.0203981E0,4.5670662E-2,2.8637059E0,1.7729317E0,-2.973851E-1,-1.3495792E-1,-3.8541526E-1,5E-1,5E-1,1.4548774E0,5E-1,5E-1,-1.6937506E0,5E-1,5.852323E-1,9.18857E-1,5E-1,8.371804E-2,3.7850186E-1,-1.4896724E0,5E-1,-2.0891213E0,-5.7765532E-2,5E-1,5.872058E-1,4.267864E0,1.6728693E-1,5E-1,5E-1,-2.3108892E0,1.5810138E0,-1.3282652E0,5E-1,-1.2720032E0,5E-1,1.9147761E0,-1.2166846E0,7.512281E-1,4.2052934E-1,2.912926E-1,4.1596968E-2,-1.3851838E-1,2.248588E-1,1.07788555E-1,3.537164E-1,-4.549112E-3,-1.4305446E-1,2.2519901E-1,-4.9708746E-2,-2.2470821E-1,1.425161E-1,3.8488004E-3,-1.706374E-1,6.673982E-2,5.6397325E-1,-1.9883259E-1,3.1007245E-1,-1.3882166E-1,-2.0306897E-3,2.8676707E-2,-1.9513335E-2,-7.172985E-2,5.8895927E-2,-3.284258E-2,-2.6848775E-1,-1.844815E-1,2.2755761E-1,-7.758833E-2,2.1227418E-1,1.9889708E-1,-2.3137432E-2,-6.592475E-2,2.1435533E-1],"split_indices":[15,4,0,5,13,0,37,10,0,0,5,0,0,0,5,34,23,6,47,33,7,17,7,3,31,0,0,0,19,1,0,29,7,0,0,56,21,7,0,3,55,7,24,2,7,2,0,0,0,0,0,0,0,0,0,0,0,0,0,0,0,0,0,0,0,0,0,0,0,0,0,0,0,0,0,0,0,0,0,0,0],"split_type":[0,0,0,0,0,0,0,0,0,0,0,0,0,0,0,0,0,0,0,0,0,0,0,0,0,0,0,0,0,0,0,0,0,0,0,0,0,0,0,0,0,0,0,0,0,0,0,0,0,0,0,0,0,0,0,0,0,0,0,0,0,0,0,0,0,0,0,0,0,0,0,0,0,0,0,0,0,0,0,0,0],"sum_hessian":[2.5836401E3,2.0009281E3,5.827121E2,4.4505887E2,1.5558693E3,5.7875305E2,3.9590755E0,2.2655342E2,2.1850543E2,2.16821E2,1.3390482E3,5.747126E2,4.040429E0,1.1067495E0,2.8523262E0,2.2035233E2,6.2010894E0,2.0190587E2,1.6599575E1,9.359102E1,1.2322999E2,1.3261642E3,1.2884024E1,5.561038E2,1.8608816E1,1.1342506E0,1.7180754E0,2.0152629E2,1.8826036E1,5.0867476E0,1.114342E0,1.8615945E2,1.5746403E1,1.4803053E1,1.7965231E0,9.048956E1,3.101453E0,5.902912E0,1.1732707E2,1.1357195E3,1.9044473E2,8.751944E0,4.13208E0,5.127993E2,4.3304455E1,1.7236298E1,1.3725187E0,4.2694335E0,1.9725685E2,1.63911E1,2.434935E0,1.6811497E0,3.4055977E0,1.744719E2,1.16875725E1,9.958792E0,5.787611E0,1.3445048E1,1.3580043E0,7.1209595E1,1.9279972E1,2.0971408E0,1.0043122E0,1.3269912E0,4.5759206E0,9.768465E1,1.9642431E1,2.199011E2,9.1581836E2,1.6706822E2,2.3376516E1,1.0607432E0,7.6912007E0,2.90374E0,1.2283403E0,5.112501E2,1.5492327E0,6.074378E0,3.7230076E1,1.321167E1,4.0246277E0],"tree_param":{"num_deleted":"0","num_feature":"58","num_nodes":"81","size_leaf_vector":"0"}},{"base_weights":[-6.5678306E-2,-2.1586733E-2,-1.270253E-1,-3.9325465E-2,9.3286954E-2,-1.19930774E-1,-6.7275816E-1,-3.0723808E-2,-2.9500932E-1,1.1117108E-1,-7.9797333E-1,-1.12065926E-1,-4.3170428E-1,-7.8254855E-1,8.392795E-2,2.3408467E-1,-3.830576E-2,-3.888292E-1,9.9590427E-1,1.23299524E-1,-7.767251E-1,-1.2086226E0,-6.811236E-2,-9.797198E-2,-2.894385E-1,-9.661542E-2,-6.3046986E-1,-8.511471E-1,-3.308987E-2,4.5363936E-1,-4.8160985E-1,-4.5165323E-2,2.5931633E-1,-4.8718646E-1,3.9623564E-1,3.247776E-1,7.533267E-2,-1.0311916E-1,5.8956116E-1,-3.6640966E-1,6.965457E-1,-3.6575505E-1,8.3766603E-1,-7.684189E-1,1.6541258E-2,-5.9577636E-2,-9.3148255E-1,5.4906857E-1,-7.130997E-1,1.2707208E-1,-7.274987E-1,-2.479171E-1,-3.130209E-2,5.2750504E-1,-5.409008E-1,-6.2853867E-1,8.065435E-2,-5.7476294E-1,8.454694E-1,-3.906964E-2,6.278314E-1,-7.113506E-1,1.146493E-1,-3.4667946E-2,-1.4718182E-1,-7.086283E-2,1.0489358E0,-1.4086515E-1,-4.6501002E-1,-4.168959E-1,1.5223676E0,-6.4222336E-1,8.0993164E-1,-9.6026194E-1,-7.288944E-2,9.335019E-1,-6.759522E-1],"categories":[],"categories_nodes":[],"categories_segments":[],"categories_sizes":[],"default_left":[true,true,true,true,true,true,true,true,true,true,true,true,true,true,false,true,true,true,false,true,false,false,false,true,true,true,true,true,false,true,true,true,true,true,true,true,true,true,true,true,true,true,false,true,true,false,false,false,false,false,false,false,false,false,false,false,false,false,false,false,false,false,false,false,false,false,false,false,false,false,false,false,false,false,false,false,false],"id":13,"left_children":[1,3,5,7,9,11,13,15,17,19,21,23,25,27,-1,29,31,33,-1,35,-1,-1,-1,37,39,41,43,45,-1,47,49,51,53,55,57,59,61,63,65,67,69,71,-1,73,75,-1,-1,-1,-1,-1,-1,-1,-1,-1,-1,-1,-1,-1,-1,-1,-1,-1,-1,-1,-1,-1,-1,-1,-1,-1,-1,-1,-1,-1,-1,-1,-1],"loss_changes":[6.8162413E0,2.994997E0,4.000126E0,2.7891624E0,3.2233462E0,2.5059109E0,1.1713719E0,2.4825923E0,5.3884726E0,2.1813476E0,1.1138003E0,2.5150547E0,1.6228914E0,5.7436895E-1,0E0,5.6292334E0,2.4587147E0,3.221118E0,0E0,1.8303175E0,0E0,0E0,0E0,3.4015856E0,5.900143E0,2.9701543E0,1.4128666E0,6.247077E-1,0E0,3.3827605E0,1.3748926E0,3.2877412E0,6.1122017E0,2.8838825E0,2.6310158E0,4.060621E0,4.9164395E0,2.8236465E0,2.2476962E0,1.4834223E0,5.904157E0,3.4196544E0,0E0,1.6581464E0,3.003197E0,0E0,0E0,0E0,0E0,0E0,0E0,0E0,0E0,0E0,0E0,0E0,0E0,0E0,0E0,0E0,0E0,0E0,0E0,0E0,0E0,0E0,0E0,0E0,0E0,0E0,0E0,0E0,0E0,0E0,0E0,0E0,0E0],"parents":[2147483647,0,0,1,1,2,2,3,3,4,4,5,5,6,6,7,7,8,8,9,9,10,10,11,11,12,12,13,13,15,15,16,16,17,17,19,19,23,23,24,24,25,25,26,26,27,27,29,29,30,30,31,31,32,32,33,33,34,34,35,35,36,36,37,37,38,38,39,39,40,40,41,41,43,43,44,44],"right_children":[2,4,6,8,10,12,14,16,18,20,22,24,26,28,-1,30,32,34,-1,36,-1,-1,-1,38,40,42,44,46,-1,48,50,52,54,56,58,60,62,64,66,68,70,72,-1,74,76,-1,-1,-1,-1,-1,-1,-1,-1,-1,-1,-1,-1,-1,-1,-1,-1,-1,-1,-1,-1,-1,-1,-1,-1,-1,-1,-1,-1,-1,-1,-1,-1],"split_conditions":[-1.4760934E-1,5E-1,3.9467463E0,1.0586386E0,5E-1,5E-1,1.4850549E0,-1.6815903E0,5E-1,2.473722E0,1.3020352E-1,1.410714E0,-2.782917E-1,1.3964214E0,2.5178386E-2,5E-1,3.5001926E0,5E-1,2.987713E-1,-7.9187673E-1,-2.3301755E-1,-3.625868E-1,-2.0433709E-2,1.3760345E0,5E-1,5E-1,5E-1,-1.4568467E0,-9.926961E-3,5E-1,-2.782917E-1,5E-1,9.002632E-1,1.3890959E0,-2.0896494E-1,-2.0896494E-1,-7.0084286E-1,-4.3412405E-1,6.8342105E-2,-3.9916664E-1,1.7524288E0,-4.8627198E-1,2.5129983E-1,1.1775703E0,5E-1,-1.787329E-2,-2.7944478E-1,1.6472058E-1,-2.1392992E-1,3.8121626E-2,-2.1824962E-1,-7.437513E-2,-9.390628E-3,1.5825152E-1,-1.6227025E-1,-1.885616E-1,2.4196306E-2,-1.7242889E-1,2.5364083E-1,-1.1720893E-2,1.8834943E-1,-2.1340519E-1,3.4394793E-2,-1.0400385E-2,-4.4154547E-2,-2.125885E-2,3.1468076E-1,-4.2259544E-2,-1.3950302E-1,-1.2506877E-1,4.567103E-1,-1.9266702E-1,2.429795E-1,-2.880786E-1,-2.1866832E-2,2.8005058E-1,-2.0278567E-1],"split_indices":[1,18,5,5,35,17,0,0,44,7,3,7,6,7,0,21,0,26,0,7,0,0,0,7,31,21,24,6,0,29,6,13,6,0,6,6,7,0,6,3,7,6,0,6,56,0,0,0,0,0,0,0,0,0,0,0,0,0,0,0,0,0,0,0,0,0,0,0,0,0,0,0,0,0,0,0,0],"split_type":[0,0,0,0,0,0,0,0,0,0,0,0,0,0,0,0,0,0,0,0,0,0,0,0,0,0,0,0,0,0,0,0,0,0,0,0,0,0,0,0,0,0,0,0,0,0,0,0,0,0,0,0,0,0,0,0,0,0,0,0,0,0,0,0,0,0,0,0,0,0,0,0,0,0,0,0,0],"sum_hessian":[2.519987E3,1.466983E3,1.053004E3,1.2713236E3,1.9565941E2,1.0406947E3,1.2309291E1,1.2310298E3,4.029384E1,1.9266856E2,2.9908426E0,1.01641394E3,2.4280779E1,1.0719746E1,1.589546E0,3.3434006E1,1.1975957E3,3.821526E1,2.0785794E0,1.9092175E2,1.7468113E0,1.4941889E0,1.4966537E0,9.430333E2,7.338063E1,9.593559E0,1.468722E1,9.696531E0,1.0232141E0,2.5865393E1,7.568611E0,1.1714447E3,2.6151093E1,3.4297688E1,3.9175725E0,3.5603466E1,1.553183E2,9.3686957E2,6.1637907E0,6.864984E1,4.730791E0,7.920429E0,1.6731308E0,1.1951418E1,2.7358017E0,1.0538856E0,8.642646E0,2.439915E1,1.4662412E0,2.3167815E0,5.2518296E0,7.389126E1,1.0975533E3,1.9841959E1,6.309133E0,2.7376085E1,6.9216013E0,1.1507812E0,2.7667913E0,1.6574797E1,1.902867E1,6.579368E0,1.4873892E2,3.675965E2,5.692731E2,2.8755176E0,3.2882729E0,2.1621084E1,4.7028755E1,2.2254412E0,2.5053499E0,6.779859E0,1.1405699E0,9.069282E0,2.8821363E0,1.0273771E0,1.7084246E0],"tree_param":{"num_deleted":"0","num_feature":"58","num_nodes":"77","size_leaf_vector":"0"}},{"base_weights":[-4.8197072E-2,-2.4145618E-2,-1.3528009E-1,-2.1975817E-2,-7.358311E-1,-9.381857E-2,-2.9060417E-1,-6.069647E-3,-9.7568594E-2,-1.18101045E-1,-8.478068E-1,-1.2353241E-1,1.858672E-1,-5.602697E-1,-1.8021953E-1,1.3307838E-1,-2.3651572E-2,-1.3729702E-1,1.8038473E-1,-1.380461E-1,2.5999466E-1,3.7360403E-1,-5.6771153E-1,-6.0529447E-1,3.5023233E-1,-2.7808496E-1,2.4058656E-1,2.0599693E-1,-1.735055E-1,1.8019108E-1,-3.3097852E-2,3.598511E-1,-1.6314715E-1,-1.4288953E-1,7.703642E-1,-1.5101358E-1,3.6093372E-1,9.748528E-1,-2.2279704E-1,7.241971E-1,-4.0790904E-2,1.4205122E-1,-7.884573E-1,-6.5049577E-1,2.209717E-1,-3.642994E-1,3.734284E-1,-6.964966E-1,5.162872E-1,8.599008E-2,4.713537E-1,-6.8654484E-1,1.0910207E-1,3.583713E-1,-1.0105386E-2,-2.8611867E-2,-6.7212725E-1,8.8235843E-1,-1.7279968E-1,-7.500639E-1,-1.21250525E-1,4.4140628E-1,-3.039117E-1,-2.7659252E-1,1.1066417E0,1.02863505E-1,-1.812226E-1,6.3286185E-1,-7.48913E-1,1.3374342E0,1.6376908E-1,1.7410809E-1,-7.5879985E-1,-2.0995393E-1,1.4829755E0,7.3682827E-1,-3.8649908E-1,-8.938942E-1,-1.0190495E-1,-7.7666914E-1,-2.9329836E-1,2.7216682E-1,-4.3027815E-1,-1.0708573E-2,1.2039065E0,1.09269835E-1,1.315179E0],"categories":[],"categories_nodes":[],"categories_segments":[],"categories_sizes":[],"default_left":[true,true,true,true,true,true,true,true,true,false,false,true,true,true,true,true,true,true,true,true,true,true,true,true,false,true,true,true,true,true,true,true,true,true,true,true,true,true,true,true,true,false,true,true,false,true,true,false,true,false,false,false,false,false,false,false,false,false,false,false,false,false,false,false,false,false,false,false,false,false,false,false,false,false,false,false,false,false,false,false,false,false,false,false,false,false,false],"id":14,"left_children":[1,3,5,7,9,11,13,15,17,-1,-1,19,21,23,25,27,29,31,33,35,37,39,41,43,-1,45,47,49,51,53,55,57,59,61,63,65,67,69,71,73,75,-1,77,79,-1,81,83,-1,85,-1,-1,-1,-1,-1,-1,-1,-1,-1,-1,-1,-1,-1,-1,-1,-1,-1,-1,-1,-1,-1,-1,-1,-1,-1,-1,-1,-1,-1,-1,-1,-1,-1,-1,-1,-1,-1,-1],"loss_changes":[5.1790304E0,2.9796305E0,3.4197884E0,2.3262134E0,3.0562854E-1,3.546295E0,3.2418242E0,3.9170632E0,3.7388458E0,0E0,0E0,2.172523E0,6.028842E0,1.5296907E0,3.4091094E0,4.0511956E0,2.7425456E0,3.8478727E0,8.214737E0,2.4518428E0,5.1673183E0,4.8991995E0,1.4589443E0,1.301341E0,0E0,3.8605018E0,4.454276E0,4.5948405E0,5.157466E0,2.1430838E0,3.8768506E0,4.295238E0,6.817826E0,2.7963111E0,5.656989E0,2.7935925E0,3.3952744E0,1.5360246E0,2.1265736E0,1.3218976E1,4.66886E0,0E0,3.9464045E-1,1.1080723E0,0E0,2.597412E0,2.6424828E0,0E0,4.02502E0,0E0,